{"learner":{"attributes":{"scikit_learn":"{\"_estimator_type\": \"classifier\"}"},"feature_names":["hp_diff","hazards_active","is_late_game"],"feature_types":["float","int","int"],"gradient_booster":{"model":{"cats":{"enc":[],"feature_segments":[],"sorted_idx":[]},"gbtree_model_param":{"num_parallel_tree":"1","num_trees":"100"},"iteration_indptr":[0,1,2,3,4,5,6,7,8,9,10,11,12,13,14,15,16,17,18,19,20,21,22,23,24,25,26,27,28,29,30,31,32,33,34,35,36,37,38,39,40,41,42,43,44,45,46,47,48,49,50,51,52,53,54,55,56,57,58,59,60,61,62,63,64,65,66,67,68,69,70,71,72,73,74,75,76,77,78,79,80,81,82,83,84,85,86,87,88,89,90,91,92,93,94,95,96,97,98,99,100],"tree_info":[0,0,0,0,0,0,0,0,0,0,0,0,0,0,0,0,0,0,0,0,0,0,0,0,0,0,0,0,0,0,0,0,0,0,0,0,0,0,0,0,0,0,0,0,0,0,0,0,0,0,0,0,0,0,0,0,0,0,0,0,0,0,0,0,0,0,0,0,0,0,0,0,0,0,0,0,0,0,0,0,0,0,0,0,0,0,0,0,0,0,0,0,0,0,0,0,0,0,0,0],"trees":[{"base_weights":[-6.5537556E-8,2.7325165E-1,-4.7053748E-1,4.500774E-2,6.5588367E-1,-1.7061077E-1,-5.274889E-1,3.100354E-1,-2.0809206E-1,8.5638635E-2,4.2253245E-2,-3.490151E-1,9.867032E-1,-4.0287137E-1,-5.616435E-1,-7.819176E-3,4.7893878E-2,-1.8137341E-2,-5.570065E-2,-3.217378E-2,-4.9991377E-2,1.3462058E-1,6.399056E-2,-5.2532922E-2,-1.6671783E-4,-5.831476E-2,-4.8051722E-2],"categories":[],"categories_nodes":[],"categories_segments":[],"categories_sizes":[],"default_left":[0,0,0,0,0,0,0,0,0,0,0,0,0,0,0,0,0,0,0,0,0,0,0,0,0,0,0],"id":0,"left_children":[1,3,5,7,9,11,13,15,17,-1,-1,19,21,23,25,-1,-1,-1,-1,-1,-1,-1,-1,-1,-1,-1,-1],"loss_changes":[2.2909166E4,9.844094E3,1.1180225E3,4.7360947E3,1.9701191E3,2.1574314E3,2.3391797E2,2.2616377E3,3.3658606E2,0E0,0E0,3.710144E1,1.7314307E2,5.8158545E2,7.504004E1,0E0,0E0,0E0,0E0,0E0,0E0,0E0,0E0,0E0,0E0,0E0,0E0],"parents":[2147483647,0,0,1,1,2,2,3,3,4,4,5,5,6,6,7,7,8,8,11,11,12,12,13,13,14,14],"right_children":[2,4,6,8,10,12,14,16,18,-1,-1,20,22,24,26,-1,-1,-1,-1,-1,-1,-1,-1,-1,-1,-1,-1],"split_conditions":[4.1841003E-1,0E0,1.0416667E1,1E0,1E0,9.454545E0,2.0422535E1,-4.522059E1,-5.882353E0,8.5638635E-2,4.2253245E-2,7.934473E0,9.876543E0,1.825095E1,6.700397E1,-7.819176E-3,4.7893878E-2,-1.8137341E-2,-5.570065E-2,-3.217378E-2,-4.9991377E-2,1.3462058E-1,6.399056E-2,-5.2532922E-2,-1.6671783E-4,-5.831476E-2,-4.8051722E-2],"split_indices":[0,0,0,2,2,0,0,0,0,0,0,0,0,0,0,0,0,0,0,0,0,0,0,0,0,0,0],"split_type":[0,0,0,0,0,0,0,0,0,0,0,0,0,0,0,0,0,0,0,0,0,0,0,0,0,0,0],"sum_hessian":[1.7817523E5,1.1271785E5,6.5457383E4,7.060334E4,4.21145E4,1.0446469E4,5.5010914E4,3.448888E4,3.611447E4,2.2650135E4,1.9464367E4,9.051798E3,1.3946704E3,1.1836553E4,4.3174363E4,1.045604E4,2.403284E4,3.354707E4,2.5673982E3,7.6686934E3,1.3831047E3,6.833766E2,7.112939E2,9.06835E3,2.7682036E3,3.4123164E4,9.0512E3],"tree_param":{"num_deleted":"0","num_feature":"3","num_nodes":"27","size_leaf_vector":"1"}},{"base_weights":[-5.838231E-4,2.4246474E-1,-4.3342778E-1,4.019225E-2,5.7263464E-1,-1.5534233E-1,-4.8710042E-1,2.748842E-1,-1.891839E-1,7.411556E-2,3.7286382E-2,-3.194595E-1,8.491542E-1,-3.809352E-1,-5.2331585E-1,-7.916172E-3,4.1849643E-2,-1.6465932E-2,-5.150794E-2,-2.9408678E-2,-4.6099063E-2,1.1411177E-1,5.5925798E-2,-4.850118E-2,-1.8925557E-2,-5.462062E-2,-4.426561E-2],"categories":[],"categories_nodes":[],"categories_segments":[],"categories_sizes":[],"default_left":[0,0,0,0,0,0,0,0,0,0,0,0,0,0,0,0,0,0,0,0,0,0,0,0,0,0,0],"id":1,"left_children":[1,3,5,7,9,11,13,15,17,-1,-1,19,21,23,25,-1,-1,-1,-1,-1,-1,-1,-1,-1,-1,-1,-1],"loss_changes":[1.8739709E4,7.6184233E3,9.559844E2,3.808167E3,1.4586768E3,1.7089059E3,2.0623535E2,1.7778472E3,2.858501E2,0E0,0E0,3.1859192E1,1.2258203E2,2.724264E2,7.3671875E1,0E0,0E0,0E0,0E0,0E0,0E0,0E0,0E0,0E0,0E0,0E0,0E0],"parents":[2147483647,0,0,1,1,2,2,3,3,4,4,5,5,6,6,7,7,8,8,11,11,12,12,13,13,14,14],"right_children":[2,4,6,8,10,12,14,16,18,-1,-1,20,22,24,26,-1,-1,-1,-1,-1,-1,-1,-1,-1,-1,-1,-1],"split_conditions":[4.1841003E-1,0E0,1.0416667E1,1E0,1E0,9.454545E0,2.2524326E1,-4.6180557E1,-5.882353E0,7.411556E-2,3.7286382E-2,7.934473E0,9.876543E0,1.825095E1,6.700397E1,-7.916172E-3,4.1849643E-2,-1.6465932E-2,-5.150794E-2,-2.9408678E-2,-4.6099063E-2,1.1411177E-1,5.5925798E-2,-4.850118E-2,-1.8925557E-2,-5.462062E-2,-4.426561E-2],"split_indices":[0,0,0,2,2,0,0,0,0,0,0,0,0,0,0,0,0,0,0,0,0,0,0,0,0,0,0],"split_type":[0,0,0,0,0,0,0,0,0,0,0,0,0,0,0,0,0,0,0,0,0,0,0,0,0,0,0],"sum_hessian":[1.7812855E5,1.1407444E5,6.4054113E4,7.0738766E4,4.333567E4,1.0363461E4,5.3690652E4,3.4964137E4,3.577463E4,2.3504902E4,1.9830771E4,8.908629E3,1.4548322E3,1.3659495E4,4.003116E4,1.0089942E4,2.4874193E4,3.3272297E4,2.5023313E3,7.5569497E3,1.3516793E3,7.233687E2,7.314635E2,8.851728E3,4.8077676E3,3.1177557E4,8.853602E3],"tree_param":{"num_deleted":"0","num_feature":"3","num_nodes":"27","size_leaf_vector":"1"}},{"base_weights":[-9.837294E-4,2.1570659E-1,-3.989163E-1,3.593919E-2,5.027556E-1,-1.4138524E-1,-4.4938454E-1,2.4428102E-1,-1.7187074E-1,6.4649045E-2,3.300068E-2,-2.921244E-1,7.383036E-1,-3.3539394E-1,-4.810068E-1,-4.0592523E-3,3.8628478E-2,-1.4938392E-2,-4.758786E-2,-2.6119003E-2,-3.9660167E-2,9.82348E-2,4.9130592E-2,-4.4736434E-2,1.7486885E-3,-5.0070178E-2,-4.0737417E-2],"categories":[],"categories_nodes":[],"categories_segments":[],"categories_sizes":[],"default_left":[0,0,0,0,0,0,0,0,0,0,0,0,0,0,0,0,0,0,0,0,0,0,0,0,0,0,0],"id":2,"left_children":[1,3,5,7,9,11,13,15,17,-1,-1,19,21,23,25,-1,-1,-1,-1,-1,-1,-1,-1,-1,-1,-1,-1],"loss_changes":[1.5341797E4,5.9442026E3,8.1521387E2,3.066855E3,1.101248E3,1.3633636E3,1.8889746E2,1.4309382E3,2.4236047E2,0E0,0E0,2.8262512E1,9.018237E1,4.5018628E2,5.933496E1,0E0,0E0,0E0,0E0,0E0,0E0,0E0,0E0,0E0,0E0,0E0,0E0],"parents":[2147483647,0,0,1,1,2,2,3,3,4,4,5,5,6,6,7,7,8,8,11,11,12,12,13,13,14,14],"right_children":[2,4,6,8,10,12,14,16,18,-1,-1,20,22,24,26,-1,-1,-1,-1,-1,-1,-1,-1,-1,-1,-1,-1],"split_conditions":[4.1841003E-1,0E0,1.0416667E1,1E0,1E0,9.454545E0,2.0422535E1,-4.1724136E1,-5.882353E0,6.4649045E-2,3.300068E-2,7.142857E0,9.876543E0,1.825095E1,6.700397E1,-4.0592523E-3,3.8628478E-2,-1.4938392E-2,-4.758786E-2,-2.6119003E-2,-3.9660167E-2,9.82348E-2,4.9130592E-2,-4.4736434E-2,1.7486885E-3,-5.0070178E-2,-4.0737417E-2],"split_indices":[0,0,0,2,2,0,0,0,0,0,0,0,0,0,0,0,0,0,0,0,0,0,0,0,0,0,0],"split_type":[0,0,0,0,0,0,0,0,0,0,0,0,0,0,0,0,0,0,0,0,0,0,0,0,0,0,0],"sum_hessian":[1.77919E5,1.151925E5,6.2726496E4,7.083345E4,4.435905E4,1.0278876E4,5.244762E4,3.537137E4,3.5462082E4,2.421136E4,2.0147691E4,8.775771E3,1.5031051E3,1.13924E4,4.105522E4,1.1766773E4,2.3604598E4,3.3021074E4,2.4410076E3,6.7736733E3,2.0020977E3,7.545751E2,7.4853E2,8.648068E3,2.7443318E3,3.2386744E4,8.668477E3],"tree_param":{"num_deleted":"0","num_feature":"3","num_nodes":"27","size_leaf_vector":"1"}},{"base_weights":[-1.2545564E-3,1.9229682E-1,-3.6682895E-1,3.216975E-2,4.4334304E-1,-1.2862346E-1,-4.1418064E-1,2.174908E-1,-1.5603384E-1,5.6732114E-2,2.9278645E-2,-2.668654E-1,6.4681387E-1,-3.073082E-1,-4.440492E-1,-1.0140466E-2,3.2048993E-2,-1.2063673E-2,-3.3155482E-2,-2.4457246E-2,-3.9307233E-2,8.520792E-2,3.83705E-2,-4.12199E-2,1.5725425E-3,-4.6274584E-2,-3.745008E-2],"categories":[],"categories_nodes":[],"categories_segments":[],"categories_sizes":[],"default_left":[0,0,0,0,0,0,0,0,0,0,0,0,0,0,0,0,0,0,0,0,0,0,0,0,0,0,0],"id":3,"left_children":[1,3,5,7,9,11,13,15,17,-1,-1,19,21,23,25,-1,-1,-1,-1,-1,-1,-1,-1,-1,-1,-1,-1],"loss_changes":[1.2566319E4,4.667877E3,6.933887E2,2.472842E3,8.4391895E2,1.0931561E3,1.6356738E2,1.1733981E3,2.185083E2,0E0,0E0,2.4252014E1,8.300397E1,3.7967468E2,5.1942383E1,0E0,0E0,0E0,0E0,0E0,0E0,0E0,0E0,0E0,0E0,0E0,0E0],"parents":[2147483647,0,0,1,1,2,2,3,3,4,4,5,5,6,6,7,7,8,8,11,11,12,12,13,13,14,14],"right_children":[2,4,6,8,10,12,14,16,18,-1,-1,20,22,24,26,-1,-1,-1,-1,-1,-1,-1,-1,-1,-1,-1,-1],"split_conditions":[4.1841003E-1,0E0,1.0416667E1,1E0,1E0,9.454545E0,2.0422535E1,-5E1,-1.1934156E1,5.6732114E-2,2.9278645E-2,7.934473E0,1E0,1.825095E1,6.700397E1,-1.0140466E-2,3.2048993E-2,-1.2063673E-2,-3.3155482E-2,-2.4457246E-2,-3.9307233E-2,8.520792E-2,3.83705E-2,-4.12199E-2,1.5725425E-3,-4.6274584E-2,-3.745008E-2],"split_indices":[0,0,0,2,2,0,0,0,0,0,0,0,2,0,0,0,0,0,0,0,0,0,0,0,0,0,0],"split_type":[0,0,0,0,0,0,0,0,0,0,0,0,0,0,0,0,0,0,0,0,0,0,0,0,0,0,0],"sum_hessian":[1.7759519E5,1.1611775E5,6.1477438E4,7.089762E4,4.5220133E4,1.0194936E4,5.12825E4,3.5722293E4,3.5175324E4,2.4797498E4,2.0422635E4,8.652974E3,1.5419626E3,1.1204187E4,4.0078312E4,8.721056E3,2.7001236E4,2.9273465E4,5.901859E3,7.3564775E3,1.2964956E3,8.64939E2,6.7702356E2,8.457661E3,2.7465261E3,3.1582408E4,8.495905E3],"tree_param":{"num_deleted":"0","num_feature":"3","num_nodes":"27","size_leaf_vector":"1"}},{"base_weights":[-1.4283374E-3,1.7170846E-1,-3.3697906E-1,2.881821E-2,3.9231497E-1,-1.1695194E-1,-3.8131058E-1,1.9393553E-1,-1.4155786E-1,5.0018426E-2,2.6028886E-2,-2.4355434E-1,5.693941E-1,-2.8130522E-1,-4.0946293E-1,-6.483965E-4,3.2480434E-2,-1.2199328E-2,-4.133427E-2,-2.1646237E-2,-3.3618886E-2,7.7431515E-2,3.6043104E-2,-3.7936177E-2,1.4142832E-3,-4.2717956E-2,-3.438909E-2],"categories":[],"categories_nodes":[],"categories_segments":[],"categories_sizes":[],"default_left":[0,0,0,0,0,0,0,0,0,0,0,0,0,0,0,0,0,0,0,0,0,0,0,0,0,0,0],"id":4,"left_children":[1,3,5,7,9,11,13,15,17,-1,-1,19,21,23,25,-1,-1,-1,-1,-1,-1,-1,-1,-1,-1,-1,-1],"loss_changes":[1.0294593E4,3.6845828E3,5.882417E2,1.9957233E3,6.542456E2,8.790921E2,1.412085E2,9.449303E2,1.8560364E2,0E0,0E0,2.1361572E1,6.7188965E1,3.1955035E2,4.5355957E1,0E0,0E0,0E0,0E0,0E0,0E0,0E0,0E0,0E0,0E0,0E0,0E0],"parents":[2147483647,0,0,1,1,2,2,3,3,4,4,5,5,6,6,7,7,8,8,11,11,12,12,13,13,14,14],"right_children":[2,4,6,8,10,12,14,16,18,-1,-1,20,22,24,26,-1,-1,-1,-1,-1,-1,-1,-1,-1,-1,-1,-1],"split_conditions":[4.1841003E-1,0E0,1.0416667E1,1E0,1E0,9.454545E0,2.0422535E1,-3.6042404E1,-5.882353E0,5.0018426E-2,2.6028886E-2,7.142857E0,9.876543E0,1.825095E1,6.700397E1,-6.483965E-4,3.2480434E-2,-1.2199328E-2,-4.133427E-2,-2.1646237E-2,-3.3618886E-2,7.7431515E-2,3.6043104E-2,-3.7936177E-2,1.4142832E-3,-4.2717956E-2,-3.438909E-2],"split_indices":[0,0,0,2,2,0,0,0,0,0,0,0,0,0,0,0,0,0,0,0,0,0,0,0,0,0,0],"split_type":[0,0,0,0,0,0,0,0,0,0,0,0,0,0,0,0,0,0,0,0,0,0,0,0,0,0,0],"sum_hessian":[1.7719714E5,1.1688667E5,6.0310465E4,7.093931E4,4.594736E4,1.0114347E4,5.0196117E4,3.602556E4,3.491375E4,2.5285535E4,2.0661826E4,8.539761E3,1.5745867E3,1.102897E4,3.916715E4,1.4231551E4,2.179401E4,3.257059E4,2.343162E3,6.609946E3,1.9298147E3,7.936163E2,7.809704E2,8.280472E3,2.7484983E3,3.0831426E4,8.33572E3],"tree_param":{"num_deleted":"0","num_feature":"3","num_nodes":"27","size_leaf_vector":"1"}},{"base_weights":[-1.5278544E-3,1.5352885E-1,-3.0923265E-1,2.5834449E-2,3.481322E-1,-1.8477626E-1,-3.771112E-1,1.7315146E-1,-1.2834805E-1,4.4262435E-2,2.3178903E-2,-2.1066268E-1,4.9780622E-2,-3.9386338E-1,-3.1541625E-1,-9.109437E-3,2.561993E-2,-9.762979E-3,-2.8329937E-2,-1.0628618E-2,-3.298193E-2,1.491411E-2,-1.4754097E-2,-3.2905225E-2,-4.065859E-2,-2.572768E-2,-3.546303E-2],"categories":[],"categories_nodes":[],"categories_segments":[],"categories_sizes":[],"default_left":[0,0,0,0,0,0,0,0,0,0,0,0,0,0,0,0,0,0,0,0,0,0,0,0,0,0,0],"id":5,"left_children":[1,3,5,7,9,11,13,15,17,-1,-1,19,21,23,25,-1,-1,-1,-1,-1,-1,-1,-1,-1,-1,-1,-1],"loss_changes":[8.433168E3,2.920545E3,5.0025146E2,1.6118947E3,5.1180713E2,1.2693176E2,3.9481934E1,7.964259E2,1.6501959E2,0E0,0E0,2.3410437E2,4.0772274E1,2.4713867E1,1.8577759E1,0E0,0E0,0E0,0E0,0E0,0E0,0E0,0E0,0E0,0E0,0E0,0E0],"parents":[2147483647,0,0,1,1,2,2,3,3,4,4,5,5,6,6,7,7,8,8,11,11,12,12,13,13,14,14],"right_children":[2,4,6,8,10,12,14,16,18,-1,-1,20,22,24,26,-1,-1,-1,-1,-1,-1,-1,-1,-1,-1,-1,-1],"split_conditions":[4.1841003E-1,0E0,2.0422535E1,1E0,1E0,1.8681318E1,6.700397E1,-5E1,-1.1934156E1,4.4262435E-2,2.3178903E-2,1.0416667E1,1.9767443E1,2.5581396E1,1E0,-9.109437E-3,2.561993E-2,-9.762979E-3,-2.8329937E-2,-1.0628618E-2,-3.298193E-2,1.491411E-2,-1.4754097E-2,-3.2905225E-2,-4.065859E-2,-2.572768E-2,-3.546303E-2],"split_indices":[0,0,0,2,2,0,0,0,0,0,0,0,0,0,2,0,0,0,0,0,0,0,0,0,0,0,0],"split_type":[0,0,0,0,0,0,0,0,0,0,0,0,0,0,0,0,0,0,0,0,0,0,0,0,0,0,0],"sum_hessian":[1.7675066E5,1.1752745E5,5.922321E4,7.096374E4,4.6563707E4,2.0902275E4,3.8320934E4,3.6289773E4,3.4673973E4,2.5693244E4,2.087046E4,1.8824812E4,2.0774626E3,3.0133363E4,8.1875713E3,8.677897E3,2.7611875E4,2.8938668E4,5.7353057E3,1.0035767E4,8.789046E3,1.3818713E3,6.9559143E2,4.9490015E3,2.5184361E4,3.3010037E3,4.886568E3],"tree_param":{"num_deleted":"0","num_feature":"3","num_nodes":"27","size_leaf_vector":"1"}},{"base_weights":[-1.5667471E-3,1.3742375E-1,-2.8331444E-1,2.3171708E-2,3.096259E-1,-1.6804199E-1,-3.4688368E-1,1.5476885E-1,-1.1629848E-1,3.9284233E-2,2.0670295E-2,-1.9631746E-1,1.6960371E-2,-3.6268574E-1,-2.8897068E-1,-1.032265E-3,2.6039287E-2,-9.933755E-3,-3.580494E-2,-9.616765E-3,-3.2172147E-2,1.1825695E-2,-1.0033263E-2,-3.0181373E-2,-3.746887E-2,-2.3492618E-2,-3.2561447E-2],"categories":[],"categories_nodes":[],"categories_segments":[],"categories_sizes":[],"default_left":[0,0,0,0,0,0,0,0,0,0,0,0,0,0,0,0,0,0,0,0,0,0,0,0,0,0,0],"id":6,"left_children":[1,3,5,7,9,11,13,15,17,-1,-1,19,21,23,25,-1,-1,-1,-1,-1,-1,-1,-1,-1,-1,-1,-1],"loss_changes":[6.9040977E3,2.3227961E3,4.267246E2,1.302668E3,4.03229E2,1.083064E2,3.4248535E1,6.3679315E2,1.4124881E2,0E0,0E0,2.255221E2,3.263534E1,2.1432129E1,1.5869629E1,0E0,0E0,0E0,0E0,0E0,0E0,0E0,0E0,0E0,0E0,0E0,0E0],"parents":[2147483647,0,0,1,1,2,2,3,3,4,4,5,5,6,6,7,7,8,8,11,11,12,12,13,13,14,14],"right_children":[2,4,6,8,10,12,14,16,18,-1,-1,20,22,24,26,-1,-1,-1,-1,-1,-1,-1,-1,-1,-1,-1,-1],"split_conditions":[4.1841003E-1,0E0,2.0422535E1,1E0,1E0,1.825095E1,6.700397E1,-3.6042404E1,-5.882353E0,3.9284233E-2,2.0670295E-2,1.0416667E1,1E0,2.5581396E1,1E0,-1.032265E-3,2.6039287E-2,-9.933755E-3,-3.580494E-2,-9.616765E-3,-3.2172147E-2,1.1825695E-2,-1.0033263E-2,-3.0181373E-2,-3.746887E-2,-2.3492618E-2,-3.2561447E-2],"split_indices":[0,0,0,2,2,0,0,0,0,0,0,0,2,0,2,0,0,0,0,0,0,0,0,0,0,0,0],"split_type":[0,0,0,0,0,0,0,0,0,0,0,0,0,0,0,0,0,0,0,0,0,0,0,0,0,0,0],"sum_hessian":[1.7630172E5,1.1806094E5,5.8240777E4,7.09731E4,4.7087836E4,2.0702967E4,3.753781E4,3.6517184E4,3.4455914E4,2.6034943E4,2.1052893E4,1.7958201E4,2.744765E3,2.9486816E4,8.050993E3,1.4248119E4,2.2269066E4,3.219833E4,2.2575828E3,9.985431E3,7.972771E3,1.4728092E3,1.2719557E3,4.8609683E3,2.4625848E4,3.2561028E3,4.7948906E3],"tree_param":{"num_deleted":"0","num_feature":"3","num_nodes":"27","size_leaf_vector":"1"}},{"base_weights":[-1.5674207E-3,1.2311731E-1,-2.5928372E-1,2.079439E-2,2.758886E-1,-1.5272008E-1,-3.1867108E-1,1.3846394E-1,-1.05324514E-1,3.494848E-2,1.8455336E-2,-1.7867714E-1,1.5225584E-2,-3.3353925E-1,-2.6443747E-1,1.7178714E-2,-3.2829348E-2,-7.877196E-3,-2.414036E-2,-8.697186E-3,-2.9503033E-2,1.0583722E-2,-9.0747215E-3,-2.9875664E-2,-3.5215084E-2,-2.1429507E-2,-2.9860837E-2],"categories":[],"categories_nodes":[],"categories_segments":[],"categories_sizes":[],"default_left":[0,0,0,0,0,0,0,0,0,0,0,0,0,0,0,0,0,0,0,0,0,0,0,0,0,0,0],"id":7,"left_children":[1,3,5,7,9,11,13,15,17,-1,-1,19,21,23,25,-1,-1,-1,-1,-1,-1,-1,-1,-1,-1,-1,-1],"loss_changes":[5.6504536E3,1.852526E3,3.6279956E2,1.0532926E3,3.19469E2,8.945709E1,2.9598877E1,5.711519E2,1.2376221E2,0E0,0E0,1.8961731E2,2.6395552E1,1.8597412E1,1.3517151E1,0E0,0E0,0E0,0E0,0E0,0E0,0E0,0E0,0E0,0E0,0E0,0E0],"parents":[2147483647,0,0,1,1,2,2,3,3,4,4,5,5,6,6,7,7,8,8,11,11,12,12,13,13,14,14],"right_children":[2,4,6,8,10,12,14,16,18,-1,-1,20,22,24,26,-1,-1,-1,-1,-1,-1,-1,-1,-1,-1,-1,-1],"split_conditions":[4.1841003E-1,0E0,2.0422535E1,1E0,1E0,1.825095E1,6.700397E1,-5.1136365E0,-1.1934156E1,3.494848E-2,1.8455336E-2,1.0416667E1,1E0,3.230327E1,1E0,1.7178714E-2,-3.2829348E-2,-7.877196E-3,-2.414036E-2,-8.697186E-3,-2.9503033E-2,1.0583722E-2,-9.0747215E-3,-2.9875664E-2,-3.5215084E-2,-2.1429507E-2,-2.9860837E-2],"split_indices":[0,0,0,2,2,0,0,0,0,0,0,0,2,0,2,0,0,0,0,0,0,0,0,0,0,0,0],"split_type":[0,0,0,0,0,0,0,0,0,0,0,0,0,0,0,0,0,0,0,0,0,0,0,0,0,0,0],"sum_hessian":[1.7584225E5,1.1850791E5,5.7334332E4,7.0972914E4,4.7535E4,2.0518988E4,3.6815348E4,3.6716312E4,3.4256598E4,2.6322219E4,2.121278E4,1.7772129E4,2.7468582E3,2.888999E4,7.9253564E3,3.427029E4,2.446026E3,2.8664908E4,5.5916895E3,9.93974E3,7.832389E3,1.48075E3,1.2661083E3,1.0076104E4,1.8813887E4,3.2149753E3,4.7103813E3],"tree_param":{"num_deleted":"0","num_feature":"3","num_nodes":"27","size_leaf_vector":"1"}},{"base_weights":[-1.5414061E-3,1.10356174E-1,-2.3702788E-1,-5.9207603E-2,1.8766999E-1,-1.3869427E-1,-2.9237738E-1,1.5799403E-2,-1.2795924E-1,2.7517572E-1,7.665885E-2,-1.5925628E-1,4.143291E-2,-3.0633032E-1,-2.4171309E-1,-1.4313032E-2,1.0081467E-2,7.0379325E-3,-1.409127E-2,3.7621405E-2,2.400773E-2,-5.205191E-3,1.649457E-2,-7.862128E-3,-2.5462681E-2,1.2930974E-2,-1.3559127E-2,-2.5108928E-2,-3.17301E-2,-1.9528061E-2,-2.7351025E-2],"categories":[],"categories_nodes":[],"categories_segments":[],"categories_sizes":[],"default_left":[0,0,0,0,0,0,0,0,0,0,0,0,0,0,0,0,0,0,0,0,0,0,0,0,0,0,0,0,0,0,0],"id":8,"left_children":[1,3,5,7,9,11,13,15,17,19,21,23,25,27,29,-1,-1,-1,-1,-1,-1,-1,-1,-1,-1,-1,-1,-1,-1,-1,-1],"loss_changes":[4.622114E3,1.5588466E3,3.0748486E2,1.920365E2,7.933308E2,7.538339E1,2.5482178E1,2.4065405E2,4.992798E1,1.6186768E2,4.091087E2,1.4045236E2,3.246693E1,1.7096436E1,1.1479004E1,0E0,0E0,0E0,0E0,0E0,0E0,0E0,0E0,0E0,0E0,0E0,0E0,0E0,0E0,0E0,0E0],"parents":[2147483647,0,0,1,1,2,2,3,3,4,4,5,5,6,6,7,7,8,8,9,9,10,10,11,11,12,12,13,13,14,14],"right_children":[2,4,6,8,10,12,14,16,18,20,22,24,26,28,30,-1,-1,-1,-1,-1,-1,-1,-1,-1,-1,-1,-1,-1,-1,-1,-1],"split_conditions":[4.1841003E-1,-2.9374039E1,2.0422535E1,1E0,1E0,1.8681318E1,6.700397E1,-5.9040592E1,-9.0661476E1,-1.1934156E1,0E0,1.0416667E1,1.9767443E1,2.5581396E1,1E0,-1.4313032E-2,1.0081467E-2,7.0379325E-3,-1.409127E-2,3.7621405E-2,2.400773E-2,-5.205191E-3,1.649457E-2,-7.862128E-3,-2.5462681E-2,1.2930974E-2,-1.3559127E-2,-2.5108928E-2,-3.17301E-2,-1.9528061E-2,-2.7351025E-2],"split_indices":[0,0,0,2,2,0,0,0,0,0,0,0,0,0,2,0,0,0,0,0,0,0,0,0,0,0,0,0,0,0,0],"split_type":[0,0,0,0,0,0,0,0,0,0,0,0,0,0,0,0,0,0,0,0,0,0,0,0,0,0,0,0,0,0,0],"sum_hessian":[1.7540786E5,1.18906734E5,5.6501125E4,3.7237688E4,8.166905E4,2.0350338E4,3.6150785E4,1.780905E4,1.9428639E4,4.5668707E4,3.600034E4,1.8265408E4,2.0849294E3,2.8340723E4,7.8100635E3,6.2062476E3,1.1602803E4,1.19082E3,1.8237818E4,1.1771684E4,3.3897023E4,1.4647132E4,2.1353207E4,9.898301E3,8.367106E3,1.3934663E3,6.914632E2,4.6997656E3,2.3640957E4,3.1773752E3,4.6326885E3],"tree_param":{"num_deleted":"0","num_feature":"3","num_nodes":"31","size_leaf_vector":"1"}},{"base_weights":[-1.4987341E-3,9.8975524E-2,-2.1644284E-1,1.4038147E-2,2.2415967E-1,-1.2585965E-1,-2.679146E-1,1.056414E-1,-8.62364E-2,2.8572066E-2,1.47550255E-2,-1.4826623E-1,1.663428E-2,-2.80348E-1,-2.181557E-1,1.3560563E-2,-3.2047413E-2,-1.14547415E-2,3.456706E-3,-7.1044452E-3,-2.4854187E-2,9.76004E-3,-7.894064E-3,-3.8926512E-2,-2.7566401E-2,-1.6776329E-2,-2.5242118E-2],"categories":[],"categories_nodes":[],"categories_segments":[],"categories_sizes":[],"default_left":[0,0,0,0,0,0,0,0,0,0,0,0,0,0,0,0,0,0,0,0,0,0,0,0,0,0,0],"id":9,"left_children":[1,3,5,7,9,11,13,15,17,-1,-1,19,21,23,25,-1,-1,-1,-1,-1,-1,-1,-1,-1,-1,-1,-1],"loss_changes":[3.7789524E3,1.267876E3,2.598479E2,6.525634E2,2.2728174E2,6.449121E1,2.1927734E1,4.7408542E2,1.1599997E2,0E0,0E0,1.3513486E2,2.1252628E1,1.4398193E1,1.2234589E1,0E0,0E0,0E0,0E0,0E0,0E0,0E0,0E0,0E0,0E0,0E0,0E0],"parents":[2147483647,0,0,1,1,2,2,3,3,4,4,5,5,6,6,7,7,8,8,11,11,12,12,13,13,14,14],"right_children":[2,4,6,8,10,12,14,16,18,-1,-1,20,22,24,26,-1,-1,-1,-1,-1,-1,-1,-1,-1,-1,-1,-1],"split_conditions":[4.1841003E-1,0E0,2.0422535E1,1E0,1E0,1.825095E1,6.870503E1,-5.1136365E0,-1.2666667E1,2.8572066E-2,1.47550255E-2,1.0416667E1,1E0,2.1855297E1,1E0,1.3560563E-2,-3.2047413E-2,-1.14547415E-2,3.456706E-3,-7.1044452E-3,-2.4854187E-2,9.76004E-3,-7.894064E-3,-3.8926512E-2,-2.7566401E-2,-1.6776329E-2,-2.5242118E-2],"split_indices":[0,0,0,2,2,0,0,0,0,0,0,0,2,0,2,0,0,0,0,0,0,0,0,0,0,0,0],"split_type":[0,0,0,0,0,0,0,0,0,0,0,0,0,0,0,0,0,0,0,0,0,0,0,0,0,0,0],"sum_hessian":[1.7497908E5,1.1924112E5,5.5737965E4,7.104097E4,4.820015E4,2.0197174E4,3.5540793E4,3.7125688E4,3.391528E4,2.6723355E4,2.1476795E4,1.745276E4,2.7444143E3,2.8431814E4,7.108977E3,3.4687184E4,2.4385042E3,2.7476137E4,6.439144E3,9.860751E3,7.5920073E3,1.4857461E3,1.2586682E3,1.168919E3,2.7262896E4,2.879762E3,4.2292153E3],"tree_param":{"num_deleted":"0","num_feature":"3","num_nodes":"27","size_leaf_vector":"1"}},{"base_weights":[-1.4391239E-3,8.881143E-2,-1.9744116E-1,-5.4093856E-2,1.5315326E-1,-1.1414684E-1,-2.4519086E-1,5.8558665E-4,-1.05111875E-1,2.2452633E-1,6.1836515E-2,-1.8273236E-1,-6.6235885E-2,-2.5742656E-1,-2.0113069E-1,-1.281403E-2,8.594236E-3,1.1972401E-3,-1.2413764E-2,3.1919234E-2,1.9146996E-2,-1.0039273E-2,1.088428E-2,-1.3259619E-2,-2.3445075E-2,5.5461396E-2,-1.621408E-2,-2.0288441E-2,-2.682913E-2,-1.6179964E-2,-2.2831695E-2],"categories":[],"categories_nodes":[],"categories_segments":[],"categories_sizes":[],"default_left":[0,0,0,0,0,0,0,0,0,0,0,0,0,0,0,0,0,0,0,0,0,0,0,0,0,0,0,0,0,0,0],"id":10,"left_children":[1,3,5,7,9,11,13,15,17,19,21,23,25,27,29,-1,-1,-1,-1,-1,-1,-1,-1,-1,-1,-1,-1,-1,-1,-1,-1],"loss_changes":[3.0880774E3,1.0990916E3,2.188811E2,1.0352622E2,5.3718494E2,6.589609E1,1.8808105E1,1.9684018E2,4.2767883E1,1.4471118E2,2.7576746E2,2.1356445E1,7.032865E2,1.616858E1,8.098175E0,0E0,0E0,0E0,0E0,0E0,0E0,0E0,0E0,0E0,0E0,0E0,0E0,0E0,0E0,0E0,0E0],"parents":[2147483647,0,0,1,1,2,2,3,3,4,4,5,5,6,6,7,7,8,8,9,9,10,10,11,11,12,12,13,13,14,14],"right_children":[2,4,6,8,10,12,14,16,18,20,22,24,26,28,30,-1,-1,-1,-1,-1,-1,-1,-1,-1,-1,-1,-1,-1,-1,-1,-1],"split_conditions":[4.1841003E-1,-2.9374039E1,2.0422535E1,1E0,1E0,9.454545E0,6.700397E1,-5.551331E1,-8.122605E1,-1.1934156E1,-1.2666667E1,1E0,1.0416667E1,2.5581396E1,1E0,-1.281403E-2,8.594236E-3,1.1972401E-3,-1.2413764E-2,3.1919234E-2,1.9146996E-2,-1.0039273E-2,1.088428E-2,-1.3259619E-2,-2.3445075E-2,5.5461396E-2,-1.621408E-2,-2.0288441E-2,-2.682913E-2,-1.6179964E-2,-2.2831695E-2],"split_indices":[0,0,0,2,2,0,0,0,0,0,0,2,0,0,2,0,0,0,0,0,0,0,0,0,0,0,0,0,0,0,0],"split_type":[0,0,0,0,0,0,0,0,0,0,0,0,0,0,0,0,0,0,0,0,0,0,0,0,0,0,0,0,0,0,0],"sum_hessian":[1.7457127E5,1.19532305E5,5.503896E4,3.710998E4,8.242232E4,2.005628E4,3.4982684E4,1.791271E4,1.919727E4,4.6262293E4,3.6160027E4,8.247294E3,1.1808984E4,2.7375537E4,7.607147E3,7.141767E3,1.0770943E4,2.6834895E3,1.6513781E4,1.1971103E4,3.429119E4,8.123359E3,2.8036668E4,4.189514E3,4.0577803E3,1.5794536E3,1.022953E4,4.5506157E3,2.2824922E4,3.111955E3,4.495192E3],"tree_param":{"num_deleted":"0","num_feature":"3","num_nodes":"31","size_leaf_vector":"1"}},{"base_weights":[-1.3789829E-3,6.931262E-2,-2.066759E-1,-6.5829635E-2,1.1230864E-1,-1.5005866E-1,-2.271439E-1,-9.392602E-2,-2.7475722E-2,1.8190415E-1,2.489583E-2,-2.2278683E-1,-5.0986893E-2,-2.4294126E-1,-1.896235E-1,1.2995638E-3,-1.1255504E-2,4.988064E-3,-1.0768312E-2,1.7379709E-2,6.628824E-2,-9.259391E-3,6.3176006E-3,-1.9930815E-2,-3.398855E-2,3.910684E-3,-1.4985091E-2,-2.7201056E-2,-2.1603478E-2,-1.4746723E-2,-2.1940054E-2],"categories":[],"categories_nodes":[],"categories_segments":[],"categories_sizes":[],"default_left":[0,0,0,0,0,0,0,0,0,0,0,0,0,0,0,0,0,0,0,0,0,0,0,0,0,0,0,0,0,0,0],"id":11,"left_children":[1,3,5,7,9,11,13,15,17,19,21,23,25,27,29,-1,-1,-1,-1,-1,-1,-1,-1,-1,-1,-1,-1,-1,-1,-1,-1],"loss_changes":[2.5276545E3,7.528053E2,5.166333E1,3.3695007E1,5.979263E2,8.5359375E1,1.9373901E1,3.595134E1,8.204982E1,2.1325537E2,1.9595284E2,1.871634E1,4.4692863E1,1.7972046E1,1.2159119E1,0E0,0E0,0E0,0E0,0E0,0E0,0E0,0E0,0E0,0E0,0E0,0E0,0E0,0E0,0E0,0E0],"parents":[2147483647,0,0,1,1,2,2,3,3,4,4,5,5,6,6,7,7,8,8,9,9,10,10,11,11,12,12,13,13,14,14],"right_children":[2,4,6,8,10,12,14,16,18,20,22,24,26,28,30,-1,-1,-1,-1,-1,-1,-1,-1,-1,-1,-1,-1,-1,-1,-1,-1],"split_conditions":[1.0416667E1,-3.5249043E1,2.2524326E1,-5.2083332E1,1E0,1.7567568E1,6.0771706E1,-8.8085106E1,1E0,9.454545E0,-1.2666667E1,1.6186384E1,1.9767443E1,1E0,1E0,1.2995638E-3,-1.1255504E-2,4.988064E-3,-1.0768312E-2,1.7379709E-2,6.628824E-2,-9.259391E-3,6.3176006E-3,-1.9930815E-2,-3.398855E-2,3.910684E-3,-1.4985091E-2,-2.7201056E-2,-2.1603478E-2,-1.4746723E-2,-2.1940054E-2],"split_indices":[0,0,0,0,2,0,0,0,2,0,0,0,0,2,2,0,0,0,0,0,0,0,0,0,0,0,0,0,0,0,0],"split_type":[0,0,0,0,0,0,0,0,0,0,0,0,0,0,0,0,0,0,0,0,0,0,0,0,0,0,0,0,0,0,0],"sum_hessian":[1.7416569E5,1.29555445E5,4.4610242E4,3.1269785E4,9.828566E4,1.1847311E4,3.276293E4,1.804752E4,1.3222267E4,5.4718945E4,4.356671E4,6.8312607E3,5.0160503E3,2.3051848E4,9.711081E3,2.6779072E3,1.5369611E4,6.7309507E3,6.491316E3,5.3813266E4,9.0568085E2,1.0706093E4,3.2860617E4,5.6925815E3,1.1386793E3,2.6247485E3,2.3913015E3,1.1076197E4,1.1975651E4,4.0223982E3,5.6886826E3],"tree_param":{"num_deleted":"0","num_feature":"3","num_nodes":"31","size_leaf_vector":"1"}},{"base_weights":[-1.3042362E-3,7.346658E-2,-1.6765992E-1,6.3062306E-3,1.7122976E-1,-1.0810532E-1,-2.0743565E-1,3.0241732E-2,-3.06736E-1,2.1689547E-2,1.1417557E-2,-2.1542355E-1,-8.027054E-2,-2.2211397E-1,-1.7270094E-1,1.5136435E-3,6.808318E-2,-2.2695668E-2,-4.7466867E-2,-1.5689215E-2,-2.734979E-2,4.176091E-3,-1.363654E-2,-2.4915904E-2,-1.971673E-2,-1.33933E-2,-2.0020777E-2],"categories":[],"categories_nodes":[],"categories_segments":[],"categories_sizes":[],"default_left":[0,0,0,0,0,0,0,0,0,0,0,0,0,0,0,0,0,0,0,0,0,0,0,0,0,0,0],"id":12,"left_children":[1,3,5,7,9,11,13,15,17,-1,-1,19,21,23,25,-1,-1,-1,-1,-1,-1,-1,-1,-1,-1,-1,-1],"loss_changes":[2.162053E3,7.873666E2,1.2765588E2,5.3264935E2,1.2720752E2,6.44624E1,1.6437378E1,6.4897186E2,6.7541504E1,0E0,0E0,1.5066193E1,1.17345406E2,1.5274292E1,1.0214478E1,0E0,0E0,0E0,0E0,0E0,0E0,0E0,0E0,0E0,0E0,0E0,0E0],"parents":[2147483647,0,0,1,1,2,2,3,3,4,4,5,5,6,6,7,7,8,8,11,11,12,12,13,13,14,14],"right_children":[2,4,6,8,10,12,14,16,18,-1,-1,20,22,24,26,-1,-1,-1,-1,-1,-1,-1,-1,-1,-1,-1,-1],"split_conditions":[4.1841003E-1,0E0,2.2524326E1,-5.882353E0,1E0,6.007067E0,6.0771706E1,-6.25E0,-1.922033E0,2.1689547E-2,1.1417557E-2,1E0,1.0416667E1,1E0,1E0,1.5136435E-3,6.808318E-2,-2.2695668E-2,-4.7466867E-2,-1.5689215E-2,-2.734979E-2,4.176091E-3,-1.363654E-2,-2.4915904E-2,-1.971673E-2,-1.33933E-2,-2.0020777E-2],"split_indices":[0,0,0,0,2,0,0,0,0,0,0,2,0,2,2,0,0,0,0,0,0,0,0,0,0,0,0],"split_type":[0,0,0,0,0,0,0,0,0,0,0,0,0,0,0,0,0,0,0,0,0,0,0,0,0,0,0],"sum_hessian":[1.7381673E5,1.1991836E5,5.389837E4,7.10857E4,4.883266E4,2.158449E4,3.231388E4,6.603733E4,5.0483726E3,2.7121795E4,2.1710863E4,4.4439385E3,1.7140553E4,2.2711133E4,9.602748E3,6.453988E4,1.4974534E3,3.4240635E3,1.6243093E3,2.215103E3,2.2288357E3,5.3979175E3,1.1742635E4,1.0892939E4,1.1818193E4,3.9879812E3,5.6147666E3],"tree_param":{"num_deleted":"0","num_feature":"3","num_nodes":"27","size_leaf_vector":"1"}},{"base_weights":[-1.2339383E-3,6.59656E-2,-1.5252766E-1,-6.0939554E-2,1.10462286E-1,-9.79453E-2,-1.8922713E-1,-8.438796E-2,-2.3084287E-2,1.6789922E-1,3.6738824E-2,-1.6822623E-1,-5.4640487E-2,-2.0030732E-1,-1.482437E-1,1.0167913E-3,-9.968425E-3,4.7468417E-3,-9.730736E-3,2.3924742E-2,1.3647208E-2,-8.519436E-3,8.271055E-3,-1.3864924E-2,-2.6922086E-2,4.4098966E-2,-1.2373656E-2,-1.7106107E-2,-2.1278447E-2,-1.1154834E-2,-1.736493E-2],"categories":[],"categories_nodes":[],"categories_segments":[],"categories_sizes":[],"default_left":[0,0,0,0,0,0,0,0,0,0,0,0,0,0,0,0,0,0,0,0,0,0,0,0,0,0,0,0,0,0,0],"id":13,"left_children":[1,3,5,7,9,11,13,15,17,19,21,23,25,27,29,-1,-1,-1,-1,-1,-1,-1,-1,-1,-1,-1,-1,-1,-1,-1,-1],"loss_changes":[1.7638912E3,6.783887E2,1.0686853E2,2.768203E1,3.7663696E2,6.528938E1,1.445874E1,2.7855453E1,6.248132E1,1.1207129E2,2.183547E2,2.4395233E1,4.5473196E2,9.127502E0,6.3144684E0,0E0,0E0,0E0,0E0,0E0,0E0,0E0,0E0,0E0,0E0,0E0,0E0,0E0,0E0,0E0,0E0],"parents":[2147483647,0,0,1,1,2,2,3,3,4,4,5,5,6,6,7,7,8,8,9,9,10,10,11,11,12,12,13,13,14,14],"right_children":[2,4,6,8,10,12,14,16,18,20,22,24,26,28,30,-1,-1,-1,-1,-1,-1,-1,-1,-1,-1,-1,-1,-1,-1,-1,-1],"split_conditions":[4.1841003E-1,-3.5249043E1,2.2524326E1,-5E1,1E0,9.454545E0,6.870503E1,-8.8085106E1,1E0,-1.1934156E1,-1.2666667E1,7.142857E0,1.0416667E1,3.230327E1,1E0,1.0167913E-3,-9.968425E-3,4.7468417E-3,-9.730736E-3,2.3924742E-2,1.3647208E-2,-8.519436E-3,8.271055E-3,-1.3864924E-2,-2.6922086E-2,4.4098966E-2,-1.2373656E-2,-1.7106107E-2,-2.1278447E-2,-1.1154834E-2,-1.736493E-2],"split_indices":[0,0,0,0,2,0,0,0,2,0,0,0,0,0,2,0,0,0,0,0,0,0,0,0,0,0,0,0,0,0,0],"split_type":[0,0,0,0,0,0,0,0,0,0,0,0,0,0,0,0,0,0,0,0,0,0,0,0,0,0,0,0,0,0,0],"sum_hessian":[1.7349205E5,1.2013342E5,5.335863E4,3.1187076E4,8.894635E4,2.1454082E4,3.1904545E4,1.9257387E4,1.1929688E4,4.9994805E4,3.8951547E4,8.178317E3,1.3275766E4,2.5111553E4,6.792992E3,2.6815276E3,1.657586E4,6.1162505E3,5.813438E3,1.5285636E4,3.4709168E4,1.0664552E4,2.8286994E4,6.327606E3,1.8507109E3,1.6236743E3,1.1652092E4,7.513853E3,1.75977E4,2.7812295E3,4.0117625E3],"tree_param":{"num_deleted":"0","num_feature":"3","num_nodes":"31","size_leaf_vector":"1"}},{"base_weights":[-1.1613509E-3,5.926547E-2,-1.3869973E-1,2.223111E-3,1.4177464E-1,-8.8793434E-2,-1.7243452E-1,2.4346704E-2,-2.9006696E-1,1.8013172E-2,9.381662E-3,-9.731361E-2,2.2330035E-1,-1.8537544E-1,-1.4199E-1,1.10027E-3,5.829249E-2,-2.1676434E-2,-4.461191E-2,-8.538476E-3,-3.097615E-2,9.597235E-3,3.5426572E-2,-2.1086827E-2,-1.6193843E-2,-1.0836649E-2,-1.6601535E-2],"categories":[],"categories_nodes":[],"categories_segments":[],"categories_sizes":[],"default_left":[0,0,0,0,0,0,0,0,0,0,0,0,0,0,0,0,0,0,0,0,0,0,0,0,0,0,0],"id":14,"left_children":[1,3,5,7,9,11,13,15,17,-1,-1,19,21,23,25,-1,-1,-1,-1,-1,-1,-1,-1,-1,-1,-1,-1],"loss_changes":[1.4389799E3,5.661553E2,8.896118E1,4.5992435E2,9.0432556E1,5.670778E1,1.2397034E1,4.9282556E2,5.7151306E1,0E0,0E0,5.2564484E1,9.41795E0,1.3184387E1,7.583435E0,0E0,0E0,0E0,0E0,0E0,0E0,0E0,0E0,0E0,0E0,0E0,0E0],"parents":[2147483647,0,0,1,1,2,2,3,3,4,4,5,5,6,6,7,7,8,8,11,11,12,12,13,13,14,14],"right_children":[2,4,6,8,10,12,14,16,18,-1,-1,20,22,24,26,-1,-1,-1,-1,-1,-1,-1,-1,-1,-1,-1,-1],"split_conditions":[4.1841003E-1,0E0,2.2524326E1,-5.882353E0,1E0,2.1855297E1,6.0771706E1,-6.25E0,-1.922033E0,1.8013172E-2,9.381662E-3,2.0422535E1,1E0,1E0,1E0,1.10027E-3,5.829249E-2,-2.1676434E-2,-4.461191E-2,-8.538476E-3,-3.097615E-2,9.597235E-3,3.5426572E-2,-2.1086827E-2,-1.6193843E-2,-1.0836649E-2,-1.6601535E-2],"split_indices":[0,0,0,0,2,0,0,0,0,0,0,0,2,2,2,0,0,0,0,0,0,0,0,0,0,0,0],"split_type":[0,0,0,0,0,0,0,0,0,0,0,0,0,0,0,0,0,0,0,0,0,0,0,0,0,0,0],"sum_hessian":[1.7313947E5,1.2029084E5,5.284863E4,7.112199E4,4.9168855E4,2.1316799E4,3.153183E4,6.6118375E4,5.0036187E3,2.731745E4,2.1851406E4,2.0750984E4,5.658148E2,2.2123014E4,9.408817E3,6.4576703E4,1.5416682E3,3.4060686E3,1.5975498E3,1.9649098E4,1.1018862E3,2.8777002E2,2.7804483E2,1.0592928E4,1.1530085E4,3.9234512E3,5.485366E3],"tree_param":{"num_deleted":"0","num_feature":"3","num_nodes":"27","size_leaf_vector":"1"}},{"base_weights":[-1.0877609E-3,5.3243954E-2,-1.2595299E-1,-5.6107476E-2,9.131732E-2,-8.033435E-2,-1.56976E-1,-8.4442765E-2,-2.8856987E-2,1.404934E-1,2.7976055E-2,-1.4500052E-1,-4.0640816E-2,-1.6661839E-1,-1.2154377E-1,8.0423354E-4,-1.0420073E-2,3.348623E-3,-9.280468E-3,2.1256877E-2,1.0868383E-2,-7.808169E-3,6.7623155E-3,-1.1776873E-2,-2.3869045E-2,4.0169332E-2,-1.0363454E-2,-1.3876803E-2,-1.7852759E-2,-1.0595166E-2,-1.6806498E-2],"categories":[],"categories_nodes":[],"categories_segments":[],"categories_sizes":[],"default_left":[0,0,0,0,0,0,0,0,0,0,0,0,0,0,0,0,0,0,0,0,0,0,0,0,0,0,0,0,0,0,0],"id":15,"left_children":[1,3,5,7,9,11,13,15,17,19,21,23,25,27,29,-1,-1,-1,-1,-1,-1,-1,-1,-1,-1,-1,-1,-1,-1,-1,-1],"loss_changes":[1.1726827E3,5.0147202E2,7.415845E1,2.4016724E1,2.7828308E2,5.4452698E1,1.0637146E1,2.7866264E1,6.3226177E1,1.1528558E2,1.6419824E2,2.0559433E1,3.66401E2,8.107361E0,4.8252563E0,0E0,0E0,0E0,0E0,0E0,0E0,0E0,0E0,0E0,0E0,0E0,0E0,0E0,0E0,0E0,0E0],"parents":[2147483647,0,0,1,1,2,2,3,3,4,4,5,5,6,6,7,7,8,8,9,9,10,10,11,11,12,12,13,13,14,14],"right_children":[2,4,6,8,10,12,14,16,18,20,22,24,26,28,30,-1,-1,-1,-1,-1,-1,-1,-1,-1,-1,-1,-1,-1,-1,-1,-1],"split_conditions":[4.1841003E-1,-3.5249043E1,2.2524326E1,-5.663717E1,1E0,9.454545E0,6.870503E1,-8.8085106E1,1E0,-1.1934156E1,-1.2666667E1,7.142857E0,1.0416667E1,3.230327E1,8.916876E1,8.0423354E-4,-1.0420073E-2,3.348623E-3,-9.280468E-3,2.1256877E-2,1.0868383E-2,-7.808169E-3,6.7623155E-3,-1.1776873E-2,-2.3869045E-2,4.0169332E-2,-1.0363454E-2,-1.3876803E-2,-1.7852759E-2,-1.0595166E-2,-1.6806498E-2],"split_indices":[0,0,0,0,2,0,0,0,2,0,0,0,0,0,0,0,0,0,0,0,0,0,0,0,0,0,0,0,0,0,0],"split_type":[0,0,0,0,0,0,0,0,0,0,0,0,0,0,0,0,0,0,0,0,0,0,0,0,0,0,0,0,0,0,0],"sum_hessian":[1.7285447E5,1.20446164E5,5.2408305E4,3.1105844E4,8.934032E4,2.121529E4,3.1193016E4,1.5248367E4,1.5857477E4,5.029315E4,3.904717E4,8.068291E3,1.3146998E4,2.4517273E4,6.6757437E3,2.68425E3,1.2564117E4,8.029711E3,7.8277656E3,1.5398024E4,3.4895125E4,1.062469E4,2.8422482E4,6.253046E3,1.8152451E3,1.6382228E3,1.1508775E4,7.3474604E3,1.7169812E4,5.0024077E3,1.673336E3],"tree_param":{"num_deleted":"0","num_feature":"3","num_nodes":"31","size_leaf_vector":"1"}},{"base_weights":[-1.0159952E-3,4.7856256E-2,-1.14354774E-1,-7.9813466E-4,1.17864E-1,-6.9814384E-2,-1.4098929E-1,1.8019935E-2,-2.9542178E-1,1.5035324E-2,7.7231834E-3,-9.333983E-2,7.820399E-2,-2.7586108E-1,-1.3637412E-1,-1.0876532E-3,1.63967E-2,-2.2404004E-2,-4.1779794E-2,-5.2319616E-3,-1.7783409E-2,1.5244337E-2,-1.0344771E-3,-3.13045E-2,-2.3851736E-2,2.0979732E-2,-1.4276805E-2],"categories":[],"categories_nodes":[],"categories_segments":[],"categories_sizes":[],"default_left":[0,0,0,0,0,0,0,0,0,0,0,0,0,0,0,0,0,0,0,0,0,0,0,0,0,0,0],"id":16,"left_children":[1,3,5,7,9,11,13,15,17,-1,-1,19,21,23,25,-1,-1,-1,-1,-1,-1,-1,-1,-1,-1,-1,-1],"loss_changes":[9.557356E2,4.106419E2,6.1660645E1,3.9435153E2,6.524353E1,6.775498E1,2.0211304E1,2.8196472E2,3.720938E1,0E0,0E0,5.817668E1,1.7544786E1,1.4185715E0,6.9655396E1,0E0,0E0,0E0,0E0,0E0,0E0,0E0,0E0,0E0,0E0,0E0,0E0],"parents":[2147483647,0,0,1,1,2,2,3,3,4,4,5,5,6,6,7,7,8,8,11,11,12,12,13,13,14,14],"right_children":[2,4,6,8,10,12,14,16,18,-1,-1,20,22,24,26,-1,-1,-1,-1,-1,-1,-1,-1,-1,-1,-1,-1],"split_conditions":[4.1841003E-1,0E0,2.0422535E1,-5.1136365E0,1E0,1.825095E1,2.1855297E1,-1.2666667E1,-1.922033E0,1.5035324E-2,7.7231834E-3,1.2251656E1,1E0,2.1153847E1,2.2524326E1,-1.0876532E-3,1.63967E-2,-2.2404004E-2,-4.1779794E-2,-5.2319616E-3,-1.7783409E-2,1.5244337E-2,-1.0344771E-3,-3.13045E-2,-2.3851736E-2,2.0979732E-2,-1.4276805E-2],"split_indices":[0,0,0,0,2,0,0,0,0,0,0,0,2,0,0,0,0,0,0,0,0,0,0,0,0,0,0],"split_type":[0,0,0,0,0,0,0,0,0,0,0,0,0,0,0,0,0,0,0,0,0,0,0,0,0,0,0],"sum_hessian":[1.7254083E5,1.20556734E5,5.1984094E4,7.1126086E4,4.943064E4,1.9454438E4,3.2529654E4,6.685678E4,4.269308E3,2.7466158E4,2.1964482E4,1.6786783E4,2.6676543E3,1.0743584E3,3.1455297E4,5.58081E4,1.1048679E4,2.6982537E3,1.5710543E3,1.1301673E4,5.48511E3,1.4506805E3,1.2169738E3,5.3463184E2,5.397265E2,5.6987994E2,3.0885416E4],"tree_param":{"num_deleted":"0","num_feature":"3","num_nodes":"27","size_leaf_vector":"1"}},{"base_weights":[-9.4697624E-4,4.301252E-2,-1.0371472E-1,-4.9599152E-2,7.5030826E-2,-6.910348E-2,-1.328923E-1,-7.5292215E-2,-2.495236E-2,1.17248915E-1,2.050044E-2,-1.6058505E-1,-4.871242E-2,-2.4976882E-1,-1.2378427E-1,-2.2753052E-4,-9.588809E-3,3.1197325E-3,-8.290448E-3,1.8972784E-2,8.520515E-3,-4.233597E-3,6.9330945E-3,-1.0561924E-2,-2.1550944E-2,5.2553667E-3,-8.734423E-3,-2.9589022E-2,-2.0188523E-2,7.2425515E-3,-1.3182491E-2],"categories":[],"categories_nodes":[],"categories_segments":[],"categories_sizes":[],"default_left":[0,0,0,0,0,0,0,0,0,0,0,0,0,0,0,0,0,0,0,0,0,0,0,0,0,0,0,0,0,0,0],"id":17,"left_children":[1,3,5,7,9,11,13,15,17,19,21,23,25,27,29,-1,-1,-1,-1,-1,-1,-1,-1,-1,-1,-1,-1,-1,-1,-1,-1],"loss_changes":[7.783074E2,3.5781323E2,5.2116272E1,1.9629387E1,2.0642627E2,4.40375E1,2.9781036E1,2.2824738E1,5.149386E1,1.1736029E2,1.20064316E2,1.2968651E1,7.554469E1,4.409424E0,4.10011E1,0E0,0E0,0E0,0E0,0E0,0E0,0E0,0E0,0E0,0E0,0E0,0E0,0E0,0E0,0E0,0E0],"parents":[2147483647,0,0,1,1,2,2,3,3,4,4,5,5,6,6,7,7,8,8,9,9,10,10,11,11,12,12,13,13,14,14],"right_children":[2,4,6,8,10,12,14,16,18,20,22,24,26,28,30,-1,-1,-1,-1,-1,-1,-1,-1,-1,-1,-1,-1,-1,-1,-1,-1],"split_conditions":[4.1841003E-1,-3.5249043E1,2.5581396E1,-5.663717E1,1E0,6.007067E0,2.8571428E1,-8.571429E1,1E0,-1.1934156E1,0E0,1E0,1.0416667E1,1E0,3E1,-2.2753052E-4,-9.588809E-3,3.1197325E-3,-8.290448E-3,1.8972784E-2,8.520515E-3,-4.233597E-3,6.9330945E-3,-1.0561924E-2,-2.1550944E-2,5.2553667E-3,-8.734423E-3,-2.9589022E-2,-2.0188523E-2,7.2425515E-3,-1.3182491E-2],"split_indices":[0,0,0,0,2,0,0,0,2,0,0,2,0,2,0,0,0,0,0,0,0,0,0,0,0,0,0,0,0,0,0],"split_type":[0,0,0,0,0,0,0,0,0,0,0,0,0,0,0,0,0,0,0,0,0,0,0,0,0,0,0,0,0,0,0],"sum_hessian":[1.7228069E5,1.2066579E5,5.1614906E4,3.0999736E4,8.966605E4,2.3610658E4,2.8004248E4,1.5176711E4,1.5823025E4,5.0537867E4,3.912818E4,4.3022686E3,1.9308389E4,2.0226504E3,2.5981598E4,3.3392922E3,1.1837419E4,8.036723E3,7.7863022E3,1.5492005E4,3.5045863E4,1.7110309E4,2.2017873E4,2.151785E3,2.1504836E3,5.3317744E3,1.3976615E4,1.027645E3,9.9500525E2,1.02249207E3,2.4959105E4],"tree_param":{"num_deleted":"0","num_feature":"3","num_nodes":"31","size_leaf_vector":"1"}},{"base_weights":[-8.7836926E-4,3.867483E-2,-9.4001584E-2,-2.6122772E-3,9.779608E-2,-6.2481362E-2,-1.20689236E-1,3.3308722E-2,-1.6178568E-1,1.2622661E-2,6.2256334E-3,-1.2096178E-1,-3.2572526E-2,-2.2868498E-1,-1.1234244E-1,-1.1093359E-3,1.1333286E-1,-2.8383408E-2,-6.2100203E-3,-9.2764385E-3,-2.1788282E-2,3.579646E-2,-7.904176E-3,-2.7177861E-2,-1.842224E-2,6.4871176E-3,-1.197E-2],"categories":[],"categories_nodes":[],"categories_segments":[],"categories_sizes":[],"default_left":[0,0,0,0,0,0,0,0,0,0,0,0,0,0,0,0,0,0,0,0,0,0,0,0,0,0,0],"id":18,"left_children":[1,3,5,7,9,11,13,15,17,-1,-1,19,21,23,25,-1,-1,-1,-1,-1,-1,-1,-1,-1,-1,-1,-1],"loss_changes":[6.336021E2,2.9471332E2,4.313089E1,4.0648602E2,5.0155365E1,4.112446E1,2.5005554E1,2.8330786E3,1.5923776E2,0E0,0E0,2.172377E1,2.8239194E2,3.7652817E0,3.3619263E1,0E0,0E0,0E0,0E0,0E0,0E0,0E0,0E0,0E0,0E0,0E0,0E0],"parents":[2147483647,0,0,1,1,2,2,3,3,4,4,5,5,6,6,7,7,8,8,11,11,12,12,13,13,14,14],"right_children":[2,4,6,8,10,12,14,16,18,-1,-1,20,22,24,26,-1,-1,-1,-1,-1,-1,-1,-1,-1,-1,-1,-1],"split_conditions":[4.1841003E-1,0E0,2.5581396E1,-1.1934156E1,1E0,9.454545E0,2.8571428E1,-1.2666667E1,-6.8067226E0,1.2622661E-2,6.2256334E-3,7.142857E0,1.0416667E1,1E0,3E1,-1.1093359E-3,1.1333286E-1,-2.8383408E-2,-6.2100203E-3,-9.2764385E-3,-2.1788282E-2,3.579646E-2,-7.904176E-3,-2.7177861E-2,-1.842224E-2,6.4871176E-3,-1.197E-2],"split_indices":[0,0,0,0,2,0,0,0,0,0,0,0,0,2,0,0,0,0,0,0,0,0,0,0,0,0,0],"split_type":[0,0,0,0,0,0,0,0,0,0,0,0,0,0,0,0,0,0,0,0,0,0,0,0,0,0,0],"sum_hessian":[1.7201725E5,1.2073625E5,5.1280996E4,7.109104E4,4.9645215E4,2.351329E4,2.7767705E4,5.8002324E4,1.3088716E4,2.7579809E4,2.2065404E4,7.955312E3,1.5557977E4,1.9902523E3,2.5777453E4,5.575286E4,2.2494631E3,5.883498E3,7.2052183E3,6.1639746E3,1.7913376E3,1.6536504E3,1.3904326E4,1.0080885E3,9.821638E2,1.027255E3,2.4750197E4],"tree_param":{"num_deleted":"0","num_feature":"3","num_nodes":"27","size_leaf_vector":"1"}},{"base_weights":[-8.419309E-4,3.4733932E-2,-8.518023E-2,-3.4920078E-2,6.509569E-2,-5.6524057E-2,-1.0952214E-1,-6.1987517E-3,-6.2327746E-2,1.4097111E-1,3.9237004E-2,-1.3733476E-1,-3.8626768E-2,-2.0911628E-1,-1.0188403E-1,-1.1218179E-2,4.04127E-3,2.0063235E-3,-7.821178E-3,3.8004087E-3,9.812499E-2,-2.5836686E-2,6.9667487E-3,-8.682E-3,-1.8813679E-2,4.677118E-3,-7.14929E-3,-2.4927892E-2,-1.6792214E-2,5.813543E-3,-1.0860673E-2],"categories":[],"categories_nodes":[],"categories_segments":[],"categories_sizes":[],"default_left":[0,0,0,0,0,0,0,0,0,0,0,0,0,0,0,0,0,0,0,0,0,0,0,0,0,0,0,0,0,0,0],"id":19,"left_children":[1,3,5,7,9,11,13,15,17,19,21,23,25,27,29,-1,-1,-1,-1,-1,-1,-1,-1,-1,-1,-1,-1,-1,-1,-1,-1],"loss_changes":[5.153967E2,2.5550108E2,3.5542114E1,2.8870396E1,1.6507764E2,3.3850662E1,2.0939514E1,8.847997E1,2.4562057E1,1.8502916E3,5.6832983E2,1.0874809E1,5.379603E1,3.2037506E0,2.7538788E1,0E0,0E0,0E0,0E0,0E0,0E0,0E0,0E0,0E0,0E0,0E0,0E0,0E0,0E0,0E0,0E0],"parents":[2147483647,0,0,1,1,2,2,3,3,4,4,5,5,6,6,7,7,8,8,9,9,10,10,11,11,12,12,13,13,14,14],"right_children":[2,4,6,8,10,12,14,16,18,20,22,24,26,28,30,-1,-1,-1,-1,-1,-1,-1,-1,-1,-1,-1,-1,-1,-1,-1,-1],"split_conditions":[4.1841003E-1,-2.9374039E1,2.5581396E1,1E0,-1.1934156E1,6.007067E0,2.8571428E1,-6.1632652E1,-7.922078E1,-1.2666667E1,-6.8067226E0,1E0,1.0416667E1,1E0,3E1,-1.1218179E-2,4.04127E-3,2.0063235E-3,-7.821178E-3,3.8004087E-3,9.812499E-2,-2.5836686E-2,6.9667487E-3,-8.682E-3,-1.8813679E-2,4.677118E-3,-7.14929E-3,-2.4927892E-2,-1.6792214E-2,5.813543E-3,-1.0860673E-2],"split_indices":[0,0,0,2,0,0,0,0,0,0,0,2,0,2,0,0,0,0,0,0,0,0,0,0,0,0,0,0,0,0,0],"split_type":[0,0,0,0,0,0,0,0,0,0,0,0,0,0,0,0,0,0,0,0,0,0,0,0,0,0,0,0,0,0,0],"sum_hessian":[1.7177356E5,1.20812586E5,5.096098E4,3.6675E4,8.4137586E4,2.34078E4,2.7553182E4,1.7908924E4,1.8766076E4,2.1384893E4,6.2752695E4,4.242987E3,1.9164814E4,1.9607249E3,2.5592455E4,5.470023E3,1.2438901E4,3.0330886E3,1.5732988E4,1.9051396E4,2.333496E3,5.820631E3,5.6932062E4,2.128867E3,2.1141199E3,5.3258716E3,1.3838942E4,9.902348E2,9.704901E2,1.0315264E3,2.456093E4],"tree_param":{"num_deleted":"0","num_feature":"3","num_nodes":"31","size_leaf_vector":"1"}},{"base_weights":[-7.969095E-4,3.120554E-2,-7.71133E-2,-3.987338E-2,5.5551443E-2,-4.6089392E-2,-9.595734E-2,-5.6678496E-2,-1.2958038E-2,9.156476E-2,8.957038E-3,-6.868877E-2,9.482706E-2,-2.3273574E-1,-9.128299E-2,5.087118E-3,-6.4824605E-3,3.3102476E-3,-6.2581166E-3,1.4824823E-2,6.4393207E-3,-4.2724595E-3,4.883992E-3,-3.43539E-3,-1.40351895E-2,1.377219E-2,-3.5026432E-3,-2.6807263E-2,-1.9745307E-2,2.1295527E-2,-9.70745E-3],"categories":[],"categories_nodes":[],"categories_segments":[],"categories_sizes":[],"default_left":[0,0,0,0,0,0,0,0,0,0,0,0,0,0,0,0,0,0,0,0,0,0,0,0,0,0,0,0,0,0,0],"id":20,"left_children":[1,3,5,7,9,11,13,15,17,19,21,23,25,27,29,-1,-1,-1,-1,-1,-1,-1,-1,-1,-1,-1,-1,-1,-1,-1,-1],"loss_changes":[4.19006E2,2.091724E2,2.9628113E1,1.3948402E1,1.5108072E2,6.1009735E1,2.013913E1,1.6636402E1,2.7099186E1,7.820679E1,8.091019E1,4.0615463E1,1.4753693E1,1.2454109E0,5.374797E1,0E0,0E0,0E0,0E0,0E0,0E0,0E0,0E0,0E0,0E0,0E0,0E0,0E0,0E0,0E0,0E0],"parents":[2147483647,0,0,1,1,2,2,3,3,4,4,5,5,6,6,7,7,8,8,9,9,10,10,11,11,12,12,13,13,14,14],"right_children":[2,4,6,8,10,12,14,16,18,20,22,24,26,28,30,-1,-1,-1,-1,-1,-1,-1,-1,-1,-1,-1,-1,-1,-1,-1,-1],"split_conditions":[4.1841003E-1,-3.5249043E1,2.0422535E1,-5E1,1E0,1.825095E1,2.1855297E1,-9.3333336E1,1E0,-1.056533E1,0E0,1.2251656E1,1.9767443E1,2.1153847E1,2.2524326E1,5.087118E-3,-6.4824605E-3,3.3102476E-3,-6.2581166E-3,1.4824823E-2,6.4393207E-3,-4.2724595E-3,4.883992E-3,-3.43539E-3,-1.40351895E-2,1.377219E-2,-3.5026432E-3,-2.6807263E-2,-1.9745307E-2,2.1295527E-2,-9.70745E-3],"split_indices":[0,0,0,0,2,0,0,0,2,0,0,0,0,0,0,0,0,0,0,0,0,0,0,0,0,0,0,0,0,0,0],"split_type":[0,0,0,0,0,0,0,0,0,0,0,0,0,0,0,0,0,0,0,0,0,0,0,0,0,0,0,0,0,0,0],"sum_hessian":[1.7155927E5,1.2087305E5,5.0686215E4,3.083839E4,9.003466E4,1.9154547E4,3.1531666E4,1.8984156E4,1.1854233E4,5.0782984E4,3.9251676E4,1.6507656E4,2.646891E3,1.0403589E3,3.0491309E4,1.3362996E3,1.7647857E4,6.1479756E3,5.706258E3,1.6453773E4,3.432921E4,1.7096877E4,2.21548E4,1.1161496E4,5.3461597E3,1.9896007E3,6.572904E2,5.1648376E2,5.238751E2,5.6892303E2,2.9922385E4],"tree_param":{"num_deleted":"0","num_feature":"3","num_nodes":"31","size_leaf_vector":"1"}},{"base_weights":[-7.3372026E-4,2.8068472E-2,-6.977898E-2,-4.8164357E-3,7.488751E-2,-4.588855E-2,-9.020652E-2,1.3980051E-2,-2.578527E-1,9.971822E-3,4.3887636E-3,-1.0153984E-1,-1.7434757E-2,-1.8249187E-1,-8.3181374E-2,2.5729227E-4,4.777035E-2,-1.9773664E-2,-3.8893357E-2,-7.297033E-3,-1.9976474E-2,4.937915E-2,-4.6844264E-3,-1.1170837E-2,-2.0568267E-2,6.217511E-3,-8.935475E-3],"categories":[],"categories_nodes":[],"categories_segments":[],"categories_sizes":[],"default_left":[0,0,0,0,0,0,0,0,0,0,0,0,0,0,0,0,0,0,0,0,0,0,0,0,0,0,0],"id":21,"left_children":[1,3,5,7,9,11,13,15,17,-1,-1,19,21,23,25,-1,-1,-1,-1,-1,-1,-1,-1,-1,-1,-1,-1],"loss_changes":[3.4074905E2,1.8615709E2,2.4610352E1,3.3780972E2,3.8395172E1,3.6814587E1,1.7611359E1,3.49727E2,3.8623657E1,0E0,0E0,2.2058174E1,2.313432E2,3.1327362E0,2.267836E1,0E0,0E0,0E0,0E0,0E0,0E0,0E0,0E0,0E0,0E0,0E0,0E0],"parents":[2147483647,0,0,1,1,2,2,3,3,4,4,5,5,6,6,7,7,8,8,11,11,12,12,13,13,14,14],"right_children":[2,4,6,8,10,12,14,16,18,-1,-1,20,22,24,26,-1,-1,-1,-1,-1,-1,-1,-1,-1,-1,-1,-1],"split_conditions":[4.1841003E-1,0E0,2.5581396E1,-5.882353E0,1E0,9.454545E0,2.8571428E1,-6.25E0,-1.922033E0,9.971822E-3,4.3887636E-3,7.142857E0,9.876543E0,2.631579E1,3E1,2.5729227E-4,4.777035E-2,-1.9773664E-2,-3.8893357E-2,-7.297033E-3,-1.9976474E-2,4.937915E-2,-4.6844264E-3,-1.1170837E-2,-2.0568267E-2,6.217511E-3,-8.935475E-3],"split_indices":[0,0,0,0,2,0,0,0,0,0,0,0,0,0,0,0,0,0,0,0,0,0,0,0,0,0,0],"split_type":[0,0,0,0,0,0,0,0,0,0,0,0,0,0,0,0,0,0,0,0,0,0,0,0,0,0,0],"sum_hessian":[1.7134452E5,1.2090828E5,5.043623E4,7.102348E4,4.9884805E4,2.324913E4,2.71871E4,6.611328E4,4.910198E3,2.769726E4,2.2187545E4,7.8646E3,1.5384531E4,1.9214265E3,2.5265672E4,6.4526984E4,1.5862931E3,3.3680554E3,1.542143E3,6.0938867E3,1.7707134E3,8.360288E2,1.4548502E4,4.756016E2,1.445825E3,1.0289619E3,2.423671E4],"tree_param":{"num_deleted":"0","num_feature":"3","num_nodes":"27","size_leaf_vector":"1"}},{"base_weights":[-6.792547E-4,2.5238633E-2,-6.312684E-2,-3.9370496E-2,4.5320634E-2,-3.7208274E-2,-7.895561E-2,4.5407705E-2,-4.3526325E-2,7.587669E-2,5.796867E-3,-5.5146962E-2,1.1410407E-1,-2.087637E-1,-7.454766E-2,-2.982008E-3,1.2099749E-2,-7.525071E-3,-2.3935912E-3,1.25262365E-2,5.0543677E-3,-5.664516E-3,3.0803077E-3,-2.6636051E-3,-1.0858092E-2,1.8186761E-2,-2.69791E-3,-2.417689E-2,-1.759683E-2,1.9435963E-2,-7.977975E-3],"categories":[],"categories_nodes":[],"categories_segments":[],"categories_sizes":[],"default_left":[0,0,0,0,0,0,0,0,0,0,0,0,0,0,0,0,0,0,0,0,0,0,0,0,0,0,0,0,0,0,0],"id":22,"left_children":[1,3,5,7,9,11,13,15,17,19,21,23,25,27,29,-1,-1,-1,-1,-1,-1,-1,-1,-1,-1,-1,-1,-1,-1,-1,-1],"loss_changes":[2.770104E2,1.56935E2,2.0591782E1,1.0106903E1,1.1143614E2,5.167462E1,1.7816666E1,7.627571E0,1.6990509E1,6.510019E1,6.2823917E1,2.5923855E1,1.9296143E1,1.0647392E0,4.242514E1,0E0,0E0,0E0,0E0,0E0,0E0,0E0,0E0,0E0,0E0,0E0,0E0,0E0,0E0,0E0,0E0],"parents":[2147483647,0,0,1,1,2,2,3,3,4,4,5,5,6,6,7,7,8,8,9,9,10,10,11,11,12,12,13,13,14,14],"right_children":[2,4,6,8,10,12,14,16,18,20,22,24,26,28,30,-1,-1,-1,-1,-1,-1,-1,-1,-1,-1,-1,-1,-1,-1,-1,-1],"split_conditions":[4.1841003E-1,-3.75E1,2.0422535E1,-9.3333336E1,1E0,1.8681318E1,2.1855297E1,-9.657795E1,-6.2962963E1,-1.056533E1,-1.2666667E1,1.2251656E1,1.9767443E1,2.1153847E1,2.2524326E1,-2.982008E-3,1.2099749E-2,-7.525071E-3,-2.3935912E-3,1.25262365E-2,5.0543677E-3,-5.664516E-3,3.0803077E-3,-2.6636051E-3,-1.0858092E-2,1.8186761E-2,-2.69791E-3,-2.417689E-2,-1.759683E-2,1.9435963E-2,-7.977975E-3],"split_indices":[0,0,0,0,2,0,0,0,0,0,0,0,0,0,0,0,0,0,0,0,0,0,0,0,0,0,0,0,0,0,0],"split_type":[0,0,0,0,0,0,0,0,0,0,0,0,0,0,0,0,0,0,0,0,0,0,0,0,0,0,0,0,0,0,0],"sum_hessian":[1.7114956E5,1.2095125E5,5.0198316E4,2.8679793E4,9.227146E4,1.9034281E4,3.1164035E4,1.3397241E3,2.7340068E4,5.2038934E4,4.0232527E4,1.7017432E4,2.0168499E3,1.02197235E3,3.0142062E4,6.717734E2,6.6795074E2,1.0436515E4,1.6903553E4,1.7642215E4,3.439672E4,1.1504308E4,2.8728219E4,1.1097568E4,5.9198633E3,1.3622566E3,6.545933E2,5.0618115E2,5.157912E2,5.7458594E2,2.9567477E4],"tree_param":{"num_deleted":"0","num_feature":"3","num_nodes":"31","size_leaf_vector":"1"}},{"base_weights":[-6.2338525E-4,2.2702824E-2,-5.7070635E-2,-5.728092E-3,6.3065685E-2,-3.7221424E-2,-7.4127056E-2,2.3260228E-2,-1.554862E-1,8.448015E-3,3.632914E-3,-8.941781E-2,-1.0575297E-2,-1.592861E-1,-6.768935E-2,-1.0368471E-3,5.0843753E-2,-5.924615E-2,-9.307223E-3,-6.8956628E-3,-2.0774899E-2,4.44026E-2,-3.706855E-3,-1.9759614E-2,-1.2026125E-2,6.400484E-3,-7.3338407E-3],"categories":[],"categories_nodes":[],"categories_segments":[],"categories_sizes":[],"default_left":[0,0,0,0,0,0,0,0,0,0,0,0,0,0,0,0,0,0,0,0,0,0,0,0,0,0,0],"id":23,"left_children":[1,3,5,7,9,11,13,15,17,-1,-1,19,21,23,25,-1,-1,-1,-1,-1,-1,-1,-1,-1,-1,-1,-1],"loss_changes":[2.2512543E2,1.3883403E2,1.6923264E1,3.0816183E2,2.8624023E1,3.2137943E1,1.472995E1,9.703594E2,3.1391592E2,0E0,0E0,1.889397E1,1.8427788E2,2.800415E0,1.8603317E1,0E0,0E0,0E0,0E0,0E0,0E0,0E0,0E0,0E0,0E0,0E0,0E0],"parents":[2147483647,0,0,1,1,2,2,3,3,4,4,5,5,6,6,7,7,8,8,11,11,12,12,13,13,14,14],"right_children":[2,4,6,8,10,12,14,16,18,-1,-1,20,22,24,26,-1,-1,-1,-1,-1,-1,-1,-1,-1,-1,-1,-1],"split_conditions":[4.1841003E-1,0E0,2.5581396E1,-1.056533E1,1E0,9.454545E0,2.8571428E1,-1.2666667E1,-9.689922E0,8.448015E-3,3.632914E-3,7.934473E0,9.876543E0,1E0,3E1,-1.0368471E-3,5.0843753E-2,-5.924615E-2,-9.307223E-3,-6.8956628E-3,-2.0774899E-2,4.44026E-2,-3.706855E-3,-1.9759614E-2,-1.2026125E-2,6.400484E-3,-7.3338407E-3],"split_indices":[0,0,0,0,2,0,0,0,0,0,0,0,0,2,0,0,0,0,0,0,0,0,0,0,0,0,0],"split_type":[0,0,0,0,0,0,0,0,0,0,0,0,0,0,0,0,0,0,0,0,0,0,0,0,0,0,0],"sum_hessian":[1.7097497E5,1.2098135E5,4.9993625E4,7.098299E4,4.999836E4,2.310668E4,2.6886945E4,5.9471984E4,1.1511006E4,2.7761113E4,2.2237246E4,7.808487E3,1.5298192E4,1.8880292E3,2.4998916E4,5.561796E4,3.854024E3,1.437591E3,1.0073415E4,6.658686E3,1.1498009E3,8.415837E2,1.4456608E4,9.5068976E2,9.373395E2,1.0278031E3,2.3971113E4],"tree_param":{"num_deleted":"0","num_feature":"3","num_nodes":"27","size_leaf_vector":"1"}},{"base_weights":[-5.842121E-4,1.7660445E-2,-5.956065E-2,4.6253942E-2,-1.6095133E-2,-1.0200099E-1,-5.1716004E-2,4.1262545E-2,4.1281083E-1,-4.8842337E-2,1.0012761E-2,-8.0223426E-2,-2.1232286E-1,9.961285E-2,-6.393623E-2,-9.000676E-3,5.231176E-3,5.3899627E-2,2.7479062E-2,-2.3065533E-3,-1.4949532E-2,1.0270957E-1,-2.3713328E-3,-3.721583E-3,-9.90133E-3,-2.7992865E-2,-1.4576472E-2,3.173776E-3,2.8528234E-2,-7.470681E-3,-3.6016162E-3],"categories":[],"categories_nodes":[],"categories_segments":[],"categories_sizes":[],"default_left":[0,0,0,0,0,0,0,0,0,0,0,0,0,0,0,0,0,0,0,0,0,0,0,0,0,0,0,0,0,0,0],"id":24,"left_children":[1,3,5,7,9,11,13,15,17,19,21,23,25,27,29,-1,-1,-1,-1,-1,-1,-1,-1,-1,-1,-1,-1,-1,-1,-1,-1],"loss_changes":[1.8378091E2,1.2590537E2,1.3429733E1,1.2919698E2,5.1147186E1,1.5105377E1,6.299373E1,1.0106342E2,1.6373566E1,6.8848755E1,1.141837E3,4.2455673E0,4.625679E0,3.2068497E1,9.474731E0,0E0,0E0,0E0,0E0,0E0,0E0,0E0,0E0,0E0,0E0,0E0,0E0,0E0,0E0,0E0,0E0],"parents":[2147483647,0,0,1,1,2,2,3,3,4,4,5,5,6,6,7,7,8,8,9,9,10,10,11,11,12,12,13,13,14,14],"right_children":[2,4,6,8,10,12,14,16,18,20,22,24,26,28,30,-1,-1,-1,-1,-1,-1,-1,-1,-1,-1,-1,-1,-1,-1,-1,-1],"split_conditions":[1.0416667E1,1E0,1.7567568E1,9.454545E0,-1.2666667E1,1.6186384E1,1.9767443E1,-6.1632652E1,9.876543E0,-2.4242424E1,-1.1934156E1,1.2251656E1,1.6835016E1,1.919192E1,6.0771706E1,-9.000676E-3,5.231176E-3,5.3899627E-2,2.7479062E-2,-2.3065533E-3,-1.4949532E-2,1.0270957E-1,-2.3713328E-3,-3.721583E-3,-9.90133E-3,-2.7992865E-2,-1.4576472E-2,3.173776E-3,2.8528234E-2,-7.470681E-3,-3.6016162E-3],"split_indices":[0,2,0,0,0,0,0,0,0,0,0,0,0,0,0,0,0,0,0,0,0,0,0,0,0,0,0,0,0,0,0],"split_type":[0,0,0,0,0,0,0,0,0,0,0,0,0,0,0,0,0,0,0,0,0,0,0,0,0,0,0,0,0,0,0],"sum_hessian":[1.7079736E5,1.3044443E5,4.0352938E4,7.062197E4,5.9822457E4,6.2933364E3,3.40596E4,6.967433E4,9.4764154E2,2.6536625E4,3.3285832E4,5.257276E3,1.0360605E3,2.544366E3,3.1515234E4,5.4087686E3,6.426556E4,4.935273E2,4.541142E2,2.1127254E4,5.4093716E3,1.0673754E3,3.2218459E4,1.5994109E3,3.6578647E3,5.1239465E2,5.2366583E2,1.8640846E3,6.802813E2,2.2740914E4,8.77432E3],"tree_param":{"num_deleted":"0","num_feature":"3","num_nodes":"31","size_leaf_vector":"1"}},{"base_weights":[-5.4697046E-4,1.8735774E-2,-4.834382E-2,-6.4777895E-3,5.4042663E-2,-1.2272426E-1,-4.2498685E-2,2.2675013E-2,-1.3733217E-1,7.073134E-2,3.3236157E-2,-8.709114E-2,-1.5923409E-1,4.3699827E-2,-5.3840745E-2,-8.372039E-4,7.202145E-2,-3.1561367E-2,-8.607981E-3,7.0646307E-3,7.857137E-3,3.5054178E-3,-1.002388E-2,1.1380408E-3,-1.0676633E-2,-1.8943213E-2,-1.4343715E-2,-5.3939614E-3,2.5348967E-2,-9.245171E-3,-4.6725003E-3],"categories":[],"categories_nodes":[],"categories_segments":[],"categories_sizes":[],"default_left":[0,0,0,0,0,0,0,0,0,0,0,0,0,0,0,0,0,0,0,0,0,0,0,0,0,0,0,0,0,0,0],"id":25,"left_children":[1,3,5,7,9,11,13,15,17,19,21,23,25,27,29,-1,-1,-1,-1,-1,-1,-1,-1,-1,-1,-1,-1,-1,-1,-1,-1],"loss_changes":[1.5727798E2,1.08244E2,2.1321861E1,2.7061075E2,1.7587524E1,4.635128E0,4.4468605E1,1.2563708E3,1.1806938E2,1.3198853E-2,5.4752254E0,3.509304E0,8.142395E-1,1.0835658E2,1.1038727E1,0E0,0E0,0E0,0E0,0E0,0E0,0E0,0E0,0E0,0E0,0E0,0E0,0E0,0E0,0E0,0E0],"parents":[2147483647,0,0,1,1,2,2,3,3,4,4,5,5,6,6,7,7,8,8,9,9,10,10,11,11,12,12,13,13,14,14],"right_children":[2,4,6,8,10,12,14,16,18,20,22,24,26,28,30,-1,-1,-1,-1,-1,-1,-1,-1,-1,-1,-1,-1,-1,-1,-1,-1],"split_conditions":[1.2772833E0,0E0,6.007067E0,-1.1934156E1,1E0,1E0,1.0416667E1,-1.2666667E1,-9.689922E0,4.1841003E-1,4.1841003E-1,2.1505225E0,2.9529295E0,9.454545E0,1.7567568E1,-8.372039E-4,7.202145E-2,-3.1561367E-2,-8.607981E-3,7.0646307E-3,7.857137E-3,3.5054178E-3,-1.002388E-2,1.1380408E-3,-1.0676633E-2,-1.8943213E-2,-1.4343715E-2,-5.3939614E-3,2.5348967E-2,-9.245171E-3,-4.6725003E-3],"split_indices":[0,0,0,0,2,2,0,0,0,0,0,0,0,0,0,0,0,0,0,0,0,0,0,0,0,0,0,0,0,0,0],"split_type":[0,0,0,0,0,0,0,0,0,0,0,0,0,0,0,0,0,0,0,0,0,0,0,0,0,0,0,0,0,0,0],"sum_hessian":[1.7064547E5,1.2159205E5,4.9053426E4,7.093578E4,5.065626E4,3.5725137E3,4.5480914E4,5.8012184E4,1.29236E4,2.8108402E4,2.254786E4,1.8096777E3,1.762836E3,5.288209E3,4.0192703E4,5.554107E4,2.471111E3,2.8845442E3,1.0039056E4,2.7816703E4,2.9169833E2,2.2245596E4,3.0226288E2,3.01439E2,1.5082386E3,6.0166943E2,1.1611666E3,3.6091826E3,1.6790265E3,6.252706E3,3.3939996E4],"tree_param":{"num_deleted":"0","num_feature":"3","num_nodes":"31","size_leaf_vector":"1"}},{"base_weights":[-5.0938944E-4,1.684598E-2,-4.3673158E-2,-2.4784366E-2,3.4667414E-2,-1.11284696E-1,-3.838023E-2,-6.095943E-3,-4.2772643E-2,9.666305E-2,1.3617387E-2,-7.879204E-2,-1.4472152E-1,1.3555571E-1,-4.3336377E-2,-8.05796E-3,2.600047E-3,2.9977716E-3,-5.6890175E-3,2.5415712E-3,6.3897066E-2,-2.2104228E-2,3.6818273E-3,1.0239276E-3,-9.669756E-3,-1.7249107E-2,-1.30233485E-2,3.3814583E-3,2.3488903E-2,-1.4744421E-2,-3.748929E-3],"categories":[],"categories_nodes":[],"categories_segments":[],"categories_sizes":[],"default_left":[0,0,0,0,0,0,0,0,0,0,0,0,0,0,0,0,0,0,0,0,0,0,0,0,0,0,0,0,0,0,0],"id":26,"left_children":[1,3,5,7,9,11,13,15,17,19,21,23,25,27,29,-1,-1,-1,-1,-1,-1,-1,-1,-1,-1,-1,-1,-1,-1,-1,-1],"loss_changes":[1.2770573E2,9.020707E1,1.749076E1,1.2252411E1,1.1110656E2,3.844143E0,3.9091133E1,4.2740044E1,1.9075668E1,8.338144E2,3.460481E2,2.873622E0,6.8071365E-1,1.2689249E1,2.6829903E1,0E0,0E0,0E0,0E0,0E0,0E0,0E0,0E0,0E0,0E0,0E0,0E0,0E0,0E0,0E0,0E0],"parents":[2147483647,0,0,1,1,2,2,3,3,4,4,5,5,6,6,7,7,8,8,9,9,10,10,11,11,12,12,13,13,14,14],"right_children":[2,4,6,8,10,12,14,16,18,20,22,24,26,28,30,-1,-1,-1,-1,-1,-1,-1,-1,-1,-1,-1,-1,-1,-1,-1,-1],"split_conditions":[1.2772833E0,-2.9374039E1,6.007067E0,1E0,-1.1934156E1,1E0,6.428951E0,-6.1632652E1,-7.922078E1,-1.2666667E1,-6.8067226E0,2.1505225E0,2.9529295E0,6.1688313E0,9.454545E0,-8.05796E-3,2.600047E-3,2.9977716E-3,-5.6890175E-3,2.5415712E-3,6.3897066E-2,-2.2104228E-2,3.6818273E-3,1.0239276E-3,-9.669756E-3,-1.7249107E-2,-1.30233485E-2,3.3814583E-3,2.3488903E-2,-1.4744421E-2,-3.748929E-3],"split_indices":[0,0,0,2,0,2,0,0,0,0,0,0,0,0,0,0,0,0,0,0,0,0,0,0,0,0,0,0,0,0,0],"split_type":[0,0,0,0,0,0,0,0,0,0,0,0,0,0,0,0,0,0,0,0,0,0,0,0,0,0,0,0,0,0,0],"sum_hessian":[1.7047161E5,1.2158506E5,4.8886543E4,3.6446566E4,8.51385E4,3.5477517E3,4.5338793E4,1.7876062E4,1.8570502E4,2.15796E4,6.35589E4,1.8009814E3,1.7467703E3,1.2553661E3,4.4083426E4,5.382892E3,1.2493171E4,3.0178447E3,1.5552657E4,1.9074654E4,2.5049448E3,5.7179155E3,5.7840984E4,3.0162823E2,1.4993531E3,5.9514215E2,1.1516282E3,6.2082886E2,6.3453723E2,2.3429436E3,4.174048E4],"tree_param":{"num_deleted":"0","num_feature":"3","num_nodes":"31","size_leaf_vector":"1"}},{"base_weights":[-4.7237516E-4,1.5296209E-2,-3.9127946E-2,-6.1452114E-3,4.557775E-2,-2.5555372E-2,-5.5798627E-2,1.0097955E-2,-2.2803564E-1,5.980191E-3,2.7800442E-3,-8.844462E-2,-1.432794E-2,-8.218175E-2,-2.955674E-2,-4.3580196E-5,4.3251354E-2,-1.7238006E-2,-3.5067663E-2,-5.1833345E-3,-1.2597203E-2,1.2105998E-2,-2.2179354E-3,-7.1404525E-3,-1.5404487E-2,-4.423752E-4,-4.8001315E-3],"categories":[],"categories_nodes":[],"categories_segments":[],"categories_sizes":[],"default_left":[0,0,0,0,0,0,0,0,0,0,0,0,0,0,0,0,0,0,0,0,0,0,0,0,0,0,0],"id":27,"left_children":[1,3,5,7,9,11,13,15,17,-1,-1,19,21,23,25,-1,-1,-1,-1,-1,-1,-1,-1,-1,-1,-1,-1],"loss_changes":[1.03826065E2,7.855162E1,1.11651E1,2.5529083E2,1.2680283E1,1.9208126E1,1.5331055E1,2.936769E2,3.2917282E1,0E0,0E0,5.655403E0,2.454229E1,8.541901E0,5.1476564E0,0E0,0E0,0E0,0E0,0E0,0E0,0E0,0E0,0E0,0E0,0E0,0E0],"parents":[2147483647,0,0,1,1,2,2,3,3,4,4,5,5,6,6,7,7,8,8,11,11,12,12,13,13,14,14],"right_children":[2,4,6,8,10,12,14,16,18,-1,-1,20,22,24,26,-1,-1,-1,-1,-1,-1,-1,-1,-1,-1,-1,-1],"split_conditions":[4.1841003E-1,0E0,3.230327E1,-5.882353E0,1E0,6.007067E0,5.4166668E1,-6.25E0,-1.922033E0,5.980191E-3,2.7800442E-3,1E0,6.428951E0,5.0545456E1,1E0,-4.3580196E-5,4.3251354E-2,-1.7238006E-2,-3.5067663E-2,-5.1833345E-3,-1.2597203E-2,1.2105998E-2,-2.2179354E-3,-7.1404525E-3,-1.5404487E-2,-4.423752E-4,-4.8001315E-3],"split_indices":[0,0,0,0,2,0,0,0,0,0,0,2,0,0,2,0,0,0,0,0,0,0,0,0,0,0,0],"split_type":[0,0,0,0,0,0,0,0,0,0,0,0,0,0,0,0,0,0,0,0,0,0,0,0,0,0,0],"sum_hessian":[1.7033212E5,1.20981375E5,4.9350754E4,7.082979E4,5.0151582E4,2.720451E4,2.2146244E4,6.599936E4,4.830433E3,2.7858662E4,2.229292E4,4.1199844E3,2.3084525E4,1.1042342E4,1.1103902E4,6.439455E4,1.604805E3,3.3242598E3,1.506173E3,2.0866526E3,2.0333317E3,1.2645477E3,2.1819977E4,9.604031E3,1.438311E3,4.700346E3,6.403556E3],"tree_param":{"num_deleted":"0","num_feature":"3","num_nodes":"27","size_leaf_vector":"1"}},{"base_weights":[-4.3581717E-4,1.1975609E-2,-4.1036762E-2,3.5487156E-2,-1.5853057E-2,-7.80685E-2,-3.4221664E-2,3.1182807E-2,3.4929013E-1,-3.7248876E-2,1.0488616E-2,-5.801657E-2,-1.8054605E-1,1.0033564E-1,-4.5220036E-2,-7.278432E-3,3.984659E-3,4.6334255E-2,2.2532169E-2,-9.1364526E-4,-1.8164631E-2,2.4999166E-3,-6.2298602E-3,-6.7136483E-3,2.4157974E-3,-2.4465708E-2,-1.1031117E-2,3.9338674E-3,2.6516512E-2,-5.2500577E-3,-1.2837524E-3],"categories":[],"categories_nodes":[],"categories_segments":[],"categories_sizes":[],"default_left":[0,0,0,0,0,0,0,0,0,0,0,0,0,0,0,0,0,0,0,0,0,0,0,0,0,0,0,0,0,0,0],"id":28,"left_children":[1,3,5,7,9,11,13,15,17,19,21,23,25,27,29,-1,-1,-1,-1,-1,-1,-1,-1,-1,-1,-1,-1,-1,-1,-1,-1],"loss_changes":[8.5775444E1,8.5298355E1,1.005497E1,9.543678E1,3.364883E1,1.271616E1,4.9817703E1,6.279348E1,1.3413391E1,1.337309E2,2.8264265E1,3.8846302E0,4.5347176E0,2.5563877E1,7.3355064E0,0E0,0E0,0E0,0E0,0E0,0E0,0E0,0E0,0E0,0E0,0E0,0E0,0E0,0E0,0E0,0E0],"parents":[2147483647,0,0,1,1,2,2,3,3,4,4,5,5,6,6,7,7,8,8,9,9,10,10,11,11,12,12,13,13,14,14],"right_children":[2,4,6,8,10,12,14,16,18,20,22,24,26,28,30,-1,-1,-1,-1,-1,-1,-1,-1,-1,-1,-1,-1,-1,-1,-1,-1],"split_conditions":[1.0416667E1,1E0,1.7567568E1,9.454545E0,0E0,1.6186384E1,1.9767443E1,-6.1632652E1,9.876543E0,-1.1934156E1,4.1841003E-1,1.5481172E1,1E0,1.919192E1,7.0454544E1,-7.278432E-3,3.984659E-3,4.6334255E-2,2.2532169E-2,-9.1364526E-4,-1.8164631E-2,2.4999166E-3,-6.2298602E-3,-6.7136483E-3,2.4157974E-3,-2.4465708E-2,-1.1031117E-2,3.9338674E-3,2.6516512E-2,-5.2500577E-3,-1.2837524E-3],"split_indices":[0,2,0,0,0,0,0,0,0,0,0,0,2,0,0,0,0,0,0,0,0,0,0,0,0,0,0,0,0,0,0],"split_type":[0,0,0,0,0,0,0,0,0,0,0,0,0,0,0,0,0,0,0,0,0,0,0,0,0,0,0,0,0,0,0],"sum_hessian":[1.702159E5,1.3036495E5,3.9850953E4,7.066342E4,5.970153E4,6.1923945E3,3.365856E4,6.970835E4,9.55071E2,3.2943234E4,2.67583E4,5.18032E3,1.0120748E3,2.5426697E3,3.1115887E4,5.3615273E3,6.434682E4,4.9600394E2,4.5906705E2,2.7575652E4,5.367581E3,2.231111E4,4.447191E3,4.6629937E3,5.173263E2,5.278056E2,4.8426923E2,1.8567847E3,6.85885E2,2.5403758E4,5.7121294E3],"tree_param":{"num_deleted":"0","num_feature":"3","num_nodes":"31","size_leaf_vector":"1"}},{"base_weights":[-4.0022502E-4,1.2553925E-2,-3.2854278E-2,-3.161927E-2,2.4405805E-2,-9.156521E-2,-2.8281068E-2,2.738606E-2,-3.8427323E-2,4.547442E-2,-2.8192145E-3,-7.5360835E-2,-1.243738E-1,3.774457E-2,-3.7050918E-2,5.3045885E-3,1.5080151E-4,-6.281259E-3,-2.46176E-3,8.563946E-3,2.3255344E-3,-4.3397886E-3,1.4934073E-3,-1.2114577E-2,-2.896964E-3,-1.2997667E-2,-1.1834276E-2,-4.598583E-3,2.1593474E-2,-7.0651704E-3,-3.0883332E-3],"categories":[],"categories_nodes":[],"categories_segments":[],"categories_sizes":[],"default_left":[0,0,0,0,0,0,0,0,0,0,0,0,0,0,0,0,0,0,0,0,0,0,0,0,0,0,0,0,0,0,0],"id":29,"left_children":[1,3,5,7,9,11,13,15,17,19,21,23,25,27,29,-1,-1,-1,-1,-1,-1,-1,-1,-1,-1,-1,-1,-1,-1,-1,-1],"loss_changes":[7.1507675E1,6.36445E1,1.3025757E1,1.0331898E1,5.4978603E1,1.8546009E0,2.6068474E1,1.7668157E0,7.763054E0,4.8219597E1,3.0125225E1,4.986765E0,2.3736954E-2,7.877105E1,8.23341E0,0E0,0E0,0E0,0E0,0E0,0E0,0E0,0E0,0E0,0E0,0E0,0E0,0E0,0E0,0E0,0E0],"parents":[2147483647,0,0,1,1,2,2,3,3,4,4,5,5,6,6,7,7,8,8,9,9,10,10,11,11,12,12,13,13,14,14],"right_children":[2,4,6,8,10,12,14,16,18,20,22,24,26,28,30,-1,-1,-1,-1,-1,-1,-1,-1,-1,-1,-1,-1,-1,-1,-1,-1],"split_conditions":[1.2772833E0,-4.0851063E1,6.007067E0,-8.8085106E1,1E0,4.612029E0,1.0416667E1,-9.3333336E1,-6.440072E1,-1.056533E1,-1.2666667E1,2.9529295E0,5.4393306E0,9.454545E0,1.7567568E1,5.3045885E-3,1.5080151E-4,-6.281259E-3,-2.46176E-3,8.563946E-3,2.3255344E-3,-4.3397886E-3,1.4934073E-3,-1.2114577E-2,-2.896964E-3,-1.2997667E-2,-1.1834276E-2,-4.598583E-3,2.1593474E-2,-7.0651704E-3,-3.0883332E-3],"split_indices":[0,0,0,0,2,0,0,0,0,0,0,0,0,0,0,0,0,0,0,0,0,0,0,0,0,0,0,0,0,0,0],"split_type":[0,0,0,0,0,0,0,0,0,0,0,0,0,0,0,0,0,0,0,0,0,0,0,0,0,0,0,0,0,0,0],"sum_hessian":[1.7008647E5,1.2156428E5,4.85222E4,2.5716086E4,9.5848195E4,3.5050664E3,4.5017133E4,2.659883E3,2.3056201E4,5.4033016E4,4.1815176E4,2.3484497E3,1.1566168E3,5.277919E3,3.9739215E4,1.3350457E3,1.3248374E3,8.334883E3,1.4721319E4,1.9243686E4,3.478933E4,1.2725979E4,2.90892E4,1.1811368E3,1.1673127E3,5.889387E2,5.6767804E2,3.591186E3,1.686733E3,6.1614453E3,3.357777E4],"tree_param":{"num_deleted":"0","num_feature":"3","num_nodes":"31","size_leaf_vector":"1"}},{"base_weights":[-3.651278E-4,1.1295452E-2,-2.9649E-2,-2.0731293E-2,2.4955777E-2,-8.288391E-2,-2.5515005E-2,-6.746802E-3,-3.4243356E-2,8.1359304E-2,5.761449E-3,-6.124034E-2,-1.05477974E-1,1.1355846E-1,-2.9561698E-2,-6.442707E-3,1.5957439E-3,2.9539068E-3,-4.6691294E-3,1.7686054E-3,5.61768E-2,-1.9884232E-2,2.5734578E-3,2.2599099E-3,-7.817941E-3,-8.563424E-3,-1.2609969E-2,2.317366E-3,2.0088032E-2,-1.2661897E-2,-2.4128768E-3],"categories":[],"categories_nodes":[],"categories_segments":[],"categories_sizes":[],"default_left":[0,0,0,0,0,0,0,0,0,0,0,0,0,0,0,0,0,0,0,0,0,0,0,0,0,0,0,0,0,0,0],"id":30,"left_children":[1,3,5,7,9,11,13,15,17,19,21,23,25,27,29,-1,-1,-1,-1,-1,-1,-1,-1,-1,-1,-1,-1,-1,-1,-1,-1],"loss_changes":[5.8039604E1,5.3184776E1,1.065078E1,6.8681126E0,9.225886E1,1.6990833E0,2.5283485E1,2.3394327E1,1.4678629E1,6.618421E2,2.5983853E2,2.534912E0,6.869049E-1,1.0021244E1,2.3013916E1,0E0,0E0,0E0,0E0,0E0,0E0,0E0,0E0,0E0,0E0,0E0,0E0,0E0,0E0,0E0,0E0],"parents":[2147483647,0,0,1,1,2,2,3,3,4,4,5,5,6,6,7,7,8,8,9,9,10,10,11,11,12,12,13,13,14,14],"right_children":[2,4,6,8,10,12,14,16,18,20,22,24,26,28,30,-1,-1,-1,-1,-1,-1,-1,-1,-1,-1,-1,-1,-1,-1,-1,-1],"split_conditions":[1.2772833E0,-2.9374039E1,6.007067E0,1E0,-1.1934156E1,1E0,6.428951E0,-6.2962963E1,-7.922078E1,-1.2666667E1,-6.8067226E0,2.1505225E0,3.7896597E0,6.1688313E0,9.454545E0,-6.442707E-3,1.5957439E-3,2.9539068E-3,-4.6691294E-3,1.7686054E-3,5.61768E-2,-1.9884232E-2,2.5734578E-3,2.2599099E-3,-7.817941E-3,-8.563424E-3,-1.2609969E-2,2.317366E-3,2.0088032E-2,-1.2661897E-2,-2.4128768E-3],"split_indices":[0,0,0,2,0,2,0,0,0,0,0,0,0,0,0,0,0,0,0,0,0,0,0,0,0,0,0,0,0,0,0],"split_type":[0,0,0,0,0,0,0,0,0,0,0,0,0,0,0,0,0,0,0,0,0,0,0,0,0,0,0,0,0,0,0],"sum_hessian":[1.699694E5,1.2156422E5,4.8405184E4,3.6347258E4,8.521696E4,3.4866987E3,4.4918484E4,1.7862117E4,1.8485139E4,2.16358E4,6.358116E4,1.782702E3,1.7039967E3,1.2692958E3,4.3649188E4,5.044555E3,1.2817562E4,3.018283E3,1.5466856E4,1.9104705E4,2.531096E3,5.6539023E3,5.7927258E4,2.9958417E2,1.4831178E3,8.7100464E2,8.3299207E2,6.2433093E2,6.4496484E2,2.3126282E3,4.133656E4],"tree_param":{"num_deleted":"0","num_feature":"3","num_nodes":"31","size_leaf_vector":"1"}},{"base_weights":[-3.3771046E-4,8.862587E-3,-3.224187E-2,2.8343251E-2,-1.4233537E-2,-8.1825435E-2,-2.5482593E-2,2.4189442E-2,1.926374E-1,-3.4645695E-2,1.5836343E-3,-6.108204E-2,-1.5609084E-1,9.5597856E-2,-3.546482E-2,-5.6046057E-3,3.0808863E-3,3.9699998E-2,1.12101305E-2,-9.2475006E-4,-1.3395115E-2,6.57187E-2,-2.1719218E-3,-7.6688523E-3,3.1332187E-3,-2.2091683E-2,-9.289429E-3,4.093834E-3,2.417819E-2,-4.0970766E-3,2.2195938E-5],"categories":[],"categories_nodes":[],"categories_segments":[],"categories_sizes":[],"default_left":[0,0,0,0,0,0,0,0,0,0,0,0,0,0,0,0,0,0,0,0,0,0,0,0,0,0,0,0,0,0,0],"id":31,"left_children":[1,3,5,7,9,11,13,15,17,19,21,23,25,27,29,-1,-1,-1,-1,-1,-1,-1,-1,-1,-1,-1,-1,-1,-1,-1,-1],"loss_changes":[4.985822E1,5.9318737E1,1.2739941E1,4.8802433E1,1.9476044E1,7.0161E0,4.04442E1,3.7049694E1,2.8979134E1,6.642305E1,5.192598E2,5.14622E0,4.0560703E0,2.0354834E1,6.0738373E0,0E0,0E0,0E0,0E0,0E0,0E0,0E0,0E0,0E0,0E0,0E0,0E0,0E0,0E0,0E0,0E0],"parents":[2147483647,0,0,1,1,2,2,3,3,4,4,5,5,6,6,7,7,8,8,9,9,10,10,11,11,12,12,13,13,14,14],"right_children":[2,4,6,8,10,12,14,16,18,20,22,24,26,28,30,-1,-1,-1,-1,-1,-1,-1,-1,-1,-1,-1,-1,-1,-1,-1,-1],"split_conditions":[1.2251656E1,1E0,1.7567568E1,9.454545E0,-1.2666667E1,1.6186384E1,1.9767443E1,-6.1632652E1,9.876543E0,-2.4242424E1,-1.1934156E1,1.5481172E1,1.6835016E1,1.919192E1,7.6435776E1,-5.6046057E-3,3.0808863E-3,3.9699998E-2,1.12101305E-2,-9.2475006E-4,-1.3395115E-2,6.57187E-2,-2.1719218E-3,-7.6688523E-3,3.1332187E-3,-2.2091683E-2,-9.289429E-3,4.093834E-3,2.417819E-2,-4.0970766E-3,2.2195938E-5],"split_indices":[0,2,0,0,0,0,0,0,0,0,0,0,0,0,0,0,0,0,0,0,0,0,0,0,0,0,0,0,0,0,0],"split_type":[0,0,0,0,0,0,0,0,0,0,0,0,0,0,0,0,0,0,0,0,0,0,0,0,0,0,0,0,0,0,0],"sum_hessian":[1.6985664E5,1.3183866E5,3.801798E4,7.151683E4,6.0321836E4,4.5595684E3,3.3458414E4,6.975439E4,1.7624363E3,2.633507E4,3.3986766E4,3.5654963E3,9.940721E2,2.547666E3,3.0910748E4,5.315579E3,6.4438812E4,4.9710046E2,1.2653358E3,2.0972318E4,5.3627524E3,1.1656318E3,3.2821133E4,3.0505105E3,5.149857E2,4.8947794E2,5.0459412E2,1.8552511E3,6.9241486E2,2.6778996E4,4.131752E3],"tree_param":{"num_deleted":"0","num_feature":"3","num_nodes":"31","size_leaf_vector":"1"}},{"base_weights":[-3.1182967E-4,9.571417E-3,-2.4785371E-2,-6.6207503E-3,3.233207E-2,-6.5900035E-2,-2.1051899E-2,7.961641E-3,-2.079925E-1,4.1736257E-3,2.057521E-3,-2.0904357E-2,-8.441276E-2,1.0070399E-1,-2.4630474E-2,-1.546561E-4,3.8438726E-2,-1.5679158E-2,-3.2192755E-2,3.8276657E-3,-8.055481E-3,-1.7984256E-2,-6.0418407E-3,1.998958E-3,1.7796464E-2,-1.15312105E-2,-1.9572868E-3],"categories":[],"categories_nodes":[],"categories_segments":[],"categories_sizes":[],"default_left":[0,0,0,0,0,0,0,0,0,0,0,0,0,0,0,0,0,0,0,0,0,0,0,0,0,0,0],"id":32,"left_children":[1,3,5,7,9,11,13,15,17,-1,-1,19,21,23,25,-1,-1,-1,-1,-1,-1,-1,-1,-1,-1,-1,-1],"loss_changes":[4.106006E1,4.456554E1,7.494446E0,2.0748615E2,5.5567474E0,3.3841038E0,1.950887E1,2.3581984E2,2.7782776E1,0E0,0E0,4.190543E0,6.582567E0,7.9689093E0,1.9944323E1,0E0,0E0,0E0,0E0,0E0,0E0,0E0,0E0,0E0,0E0,0E0,0E0],"parents":[2147483647,0,0,1,1,2,2,3,3,4,4,5,5,6,6,7,7,8,8,11,11,12,12,13,13,14,14],"right_children":[2,4,6,8,10,12,14,16,18,-1,-1,20,22,24,26,-1,-1,-1,-1,-1,-1,-1,-1,-1,-1,-1,-1],"split_conditions":[4.1841003E-1,0E0,6.007067E0,-5.882353E0,1E0,2.1505225E0,6.428951E0,-6.25E0,-1.922033E0,4.1736257E-3,2.057521E-3,1E0,2.9529295E0,6.1688313E0,9.454545E0,-1.546561E-4,3.8438726E-2,-1.5679158E-2,-3.2192755E-2,3.8276657E-3,-8.055481E-3,-1.7984256E-2,-6.0418407E-3,1.998958E-3,1.7796464E-2,-1.15312105E-2,-1.9572868E-3],"split_indices":[0,0,0,0,2,0,0,0,0,0,0,2,0,0,0,0,0,0,0,0,0,0,0,0,0,0,0],"split_type":[0,0,0,0,0,0,0,0,0,0,0,0,0,0,0,0,0,0,0,0,0,0,0,0,0,0,0],"sum_hessian":[1.6975322E5,1.20921586E5,4.8831633E4,7.0656516E4,5.026508E4,4.0637007E3,4.476793E4,6.58863E4,4.7702144E3,2.7925344E4,2.2339734E4,1.1851909E3,2.8785098E3,1.2774484E3,4.3490484E4,6.4264035E4,1.6222611E3,3.2928342E3,1.4773802E3,5.9511633E2,5.900746E2,5.7703687E2,2.301473E3,6.2537555E2,6.520728E2,2.2963154E3,4.1194168E4],"tree_param":{"num_deleted":"0","num_feature":"3","num_nodes":"27","size_leaf_vector":"1"}},{"base_weights":[-2.8819087E-4,7.440282E-3,-2.717234E-2,2.4495682E-2,-1.2813715E-2,-7.221383E-2,-2.1053733E-2,2.0684984E-2,1.7477547E-1,-2.8913563E-2,6.355863E-3,-5.3321406E-2,-1.4028472E-1,8.766785E-2,-3.008139E-2,-4.844294E-3,2.671545E-3,3.5921793E-2,1.0238539E-2,-4.648095E-4,-1.5521747E-2,1.8506302E-3,-4.6399958E-3,-6.7514586E-3,3.0135438E-3,-2.0087557E-2,-7.453501E-3,3.8758074E-3,2.173402E-2,-8.913882E-3,-2.6790847E-3],"categories":[],"categories_nodes":[],"categories_segments":[],"categories_sizes":[],"default_left":[0,0,0,0,0,0,0,0,0,0,0,0,0,0,0,0,0,0,0,0,0,0,0,0,0,0,0,0,0,0,0],"id":33,"left_children":[1,3,5,7,9,11,13,15,17,19,21,23,25,27,29,-1,-1,-1,-1,-1,-1,-1,-1,-1,-1,-1,-1,-1,-1,-1,-1],"loss_changes":[3.525352E1,4.5525005E1,1.0439352E1,4.096714E1,1.859351E1,5.8189487E0,3.2741386E1,2.9088703E1,2.358456E1,1.00355606E2,1.7629606E1,4.204632E0,3.9036636E0,1.6212473E1,5.982853E0,0E0,0E0,0E0,0E0,0E0,0E0,0E0,0E0,0E0,0E0,0E0,0E0,0E0,0E0,0E0,0E0],"parents":[2147483647,0,0,1,1,2,2,3,3,4,4,5,5,6,6,7,7,8,8,9,9,10,10,11,11,12,12,13,13,14,14],"right_children":[2,4,6,8,10,12,14,16,18,20,22,24,26,28,30,-1,-1,-1,-1,-1,-1,-1,-1,-1,-1,-1,-1,-1,-1,-1,-1],"split_conditions":[1.2251656E1,1E0,1.7567568E1,9.454545E0,0E0,1.6186384E1,1.9767443E1,-6.0344826E1,9.876543E0,-1.1934156E1,4.1841003E-1,1.5481172E1,1E0,1.919192E1,2.1855297E1,-4.844294E-3,2.671545E-3,3.5921793E-2,1.0238539E-2,-4.648095E-4,-1.5521747E-2,1.8506302E-3,-4.6399958E-3,-6.7514586E-3,3.0135438E-3,-2.0087557E-2,-7.453501E-3,3.8758074E-3,2.173402E-2,-8.913882E-3,-2.6790847E-3],"split_indices":[0,2,0,0,0,0,0,0,0,0,0,0,2,0,0,0,0,0,0,0,0,0,0,0,0,0,0,0,0,0,0],"split_type":[0,0,0,0,0,0,0,0,0,0,0,0,0,0,0,0,0,0,0,0,0,0,0,0,0,0,0,0,0,0,0],"sum_hessian":[1.6967092E5,1.3178655E5,3.788438E4,7.1542305E4,6.0244242E4,4.5295757E3,3.3354805E4,6.977415E4,1.7681499E3,3.2743572E4,2.7500672E4,3.54694E3,9.8263556E2,2.5565942E3,3.0798209E4,5.5978867E3,6.4176266E4,4.9724884E2,1.270901E3,2.746755E4,5.276021E3,2.2353078E4,5.1475923E3,3.0315647E3,5.153752E2,5.1031027E2,4.7232532E2,1.8573416E3,6.9925256E2,1.6240619E3,2.9174148E4],"tree_param":{"num_deleted":"0","num_feature":"3","num_nodes":"31","size_leaf_vector":"1"}},{"base_weights":[-2.6433732E-4,6.6935453E-3,-2.4510104E-2,2.2034956E-2,-1.1549346E-2,-6.533464E-2,-1.898217E-2,1.8607998E-2,1.567797E-1,-3.0638434E-2,3.2433653E-3,-4.8169922E-2,-1.2754217E-1,6.7537524E-2,-2.8196534E-2,-4.786234E-3,2.3739415E-3,3.2349493E-2,9.168728E-3,-7.710299E-4,-1.208706E-2,5.834773E-2,-1.7728325E-3,-6.104718E-3,2.7072472E-3,-1.881977E-2,-6.8940036E-3,1.183823E-2,7.52102E-4,-1.4840461E-2,-2.4157225E-3],"categories":[],"categories_nodes":[],"categories_segments":[],"categories_sizes":[],"default_left":[0,0,0,0,0,0,0,0,0,0,0,0,0,0,0,0,0,0,0,0,0,0,0,0,0,0,0,0,0,0,0],"id":34,"left_children":[1,3,5,7,9,11,13,15,17,19,21,23,25,27,29,-1,-1,-1,-1,-1,-1,-1,-1,-1,-1,-1,-1,-1,-1,-1,-1],"loss_changes":[2.860824E1,3.687829E1,8.5323925E0,3.3048393E1,1.6997223E1,4.808674E0,2.655389E1,2.3809687E1,1.9233631E1,5.4368576E1,4.1268643E2,3.4274206E0,3.4510565E0,9.782121E0,1.4611998E1,0E0,0E0,0E0,0E0,0E0,0E0,0E0,0E0,0E0,0E0,0E0,0E0,0E0,0E0,0E0,0E0],"parents":[2147483647,0,0,1,1,2,2,3,3,4,4,5,5,6,6,7,7,8,8,9,9,10,10,11,11,12,12,13,13,14,14],"right_children":[2,4,6,8,10,12,14,16,18,20,22,24,26,28,30,-1,-1,-1,-1,-1,-1,-1,-1,-1,-1,-1,-1,-1,-1,-1,-1],"split_conditions":[1.2251656E1,1E0,1.7567568E1,9.454545E0,-1.2666667E1,1.6186384E1,2.0422535E1,-6.2962963E1,9.876543E0,-2.4242424E1,-1.1934156E1,1.5481172E1,1.6835016E1,1E0,2.1855297E1,-4.786234E-3,2.3739415E-3,3.2349493E-2,9.168728E-3,-7.710299E-4,-1.208706E-2,5.834773E-2,-1.7728325E-3,-6.104718E-3,2.7072472E-3,-1.881977E-2,-6.8940036E-3,1.183823E-2,7.52102E-4,-1.4840461E-2,-2.4157225E-3],"split_indices":[0,2,0,0,0,0,0,0,0,0,0,0,0,2,0,0,0,0,0,0,0,0,0,0,0,0,0,0,0,0,0],"split_type":[0,0,0,0,0,0,0,0,0,0,0,0,0,0,0,0,0,0,0,0,0,0,0,0,0,0,0,0,0,0,0],"sum_hessian":[1.6957939E5,1.3176664E5,3.7812758E4,7.1575125E4,6.0191508E4,4.5082085E3,3.3304547E4,6.9801016E4,1.7741078E3,2.6278998E4,3.391251E4,3.5346724E3,9.7353613E2,3.2049402E3,3.0099607E4,5.001767E3,6.479925E4,4.970612E2,1.2770465E3,2.0955307E4,5.3236914E3,1.1820251E3,3.2730486E4,3.0182986E3,5.1637384E2,4.773001E2,4.9623602E2,1.7345184E3,1.4704218E3,9.773829E2,2.9122225E4],"tree_param":{"num_deleted":"0","num_feature":"3","num_nodes":"31","size_leaf_vector":"1"}},{"base_weights":[-2.4353297E-4,7.438627E-3,-1.9339275E-2,-1.8029323E-2,1.8360598E-2,-4.735785E-2,-1.4139102E-2,5.6331277E-2,-2.0867564E-2,6.8491876E-2,1.1262468E-3,-3.0992102E-2,-1.4388834E-1,2.44753E-1,-1.9624539E-2,-1.2119883E-3,1.246111E-2,-8.724659E-4,-3.278219E-3,2.8335124E-3,5.3569026E-2,-1.775781E-2,1.8548397E-3,-5.904564E-3,1.5118521E-3,-1.08732125E-2,-1.8118976E-2,2.9148284E-2,1.7845817E-2,7.7606994E-3,-2.1708773E-3],"categories":[],"categories_nodes":[],"categories_segments":[],"categories_sizes":[],"default_left":[0,0,0,0,0,0,0,0,0,0,0,0,0,0,0,0,0,0,0,0,0,0,0,0,0,0,0,0,0,0,0],"id":35,"left_children":[1,3,5,7,9,11,13,15,17,19,21,23,25,27,29,-1,-1,-1,-1,-1,-1,-1,-1,-1,-1,-1,-1,-1,-1,-1,-1],"loss_changes":[2.4864294E1,3.362138E1,7.084118E0,7.657748E0,7.3086136E1,1.2020222E1,5.8251457E1,6.236589E0,5.0554743E0,4.0600522E2,1.9599876E2,8.421278E0,1.4269009E0,2.5845566E0,8.141203E0,0E0,0E0,0E0,0E0,0E0,0E0,0E0,0E0,0E0,0E0,0E0,0E0,0E0,0E0,0E0,0E0],"parents":[2147483647,0,0,1,1,2,2,3,3,4,4,5,5,6,6,7,7,8,8,9,9,10,10,11,11,12,12,13,13,14,14],"right_children":[2,4,6,8,10,12,14,16,18,20,22,24,26,28,30,-1,-1,-1,-1,-1,-1,-1,-1,-1,-1,-1,-1,-1,-1,-1,-1],"split_conditions":[4.1841003E-1,-2.9374039E1,9.454545E0,-9.3333336E1,-1.1934156E1,7.934473E0,9.876543E0,-9.657795E1,1E0,-1.2416107E1,-6.8067226E0,6.007067E0,1E0,1E0,1.0416667E1,-1.2119883E-3,1.246111E-2,-8.724659E-4,-3.278219E-3,2.8335124E-3,5.3569026E-2,-1.775781E-2,1.8548397E-3,-5.904564E-3,1.5118521E-3,-1.08732125E-2,-1.8118976E-2,2.9148284E-2,1.7845817E-2,7.7606994E-3,-2.1708773E-3],"split_indices":[0,0,0,0,0,0,0,0,2,0,0,0,2,2,0,0,0,0,0,0,0,0,0,0,0,0,0,0,0,0,0],"split_type":[0,0,0,0,0,0,0,0,0,0,0,0,0,0,0,0,0,0,0,0,0,0,0,0,0,0,0,0,0,0,0],"sum_hessian":[1.6949277E5,1.2086838E5,4.8624383E4,3.6276906E4,8.459148E4,7.610552E3,4.1013832E4,1.3330399E3,3.4943867E4,2.164053E4,6.295095E4,6.508435E3,1.1021168E3,8.500705E2,4.016376E4,6.660954E2,6.6694446E2,1.7307004E4,1.7636865E4,1.9928676E4,1.7118539E3,5.591191E3,5.7359758E4,4.0463623E3,2.4620728E3,5.693886E2,5.327282E2,4.9661807E2,3.534524E2,8.421136E2,3.932165E4],"tree_param":{"num_deleted":"0","num_feature":"3","num_nodes":"31","size_leaf_vector":"1"}},{"base_weights":[-2.2397663E-4,4.483575E-3,-2.6167277E-2,1.7448697E-2,-1.0867683E-2,-1.0647549E-1,-2.0140802E-2,1.6006364E-2,2.4667689E-1,-2.6557578E-2,2.1021015E-3,-3.854093E-2,-1.2892228E-1,5.5813257E-2,-2.8744113E-2,-5.85214E-3,1.9348318E-3,2.3147603E-2,2.583321E-2,-5.4786325E-4,-3.2118984E-2,3.0458821E-2,-6.153776E-4,-7.2137923E-3,-4.3227928E-4,-1.6634291E-2,-9.107056E-3,-2.0824692E-3,1.3134931E-2,-5.1354943E-3,-6.4009504E-4],"categories":[],"categories_nodes":[],"categories_segments":[],"categories_sizes":[],"default_left":[0,0,0,0,0,0,0,0,0,0,0,0,0,0,0,0,0,0,0,0,0,0,0,0,0,0,0,0,0,0,0],"id":36,"left_children":[1,3,5,7,9,11,13,15,17,19,21,23,25,27,29,-1,-1,-1,-1,-1,-1,-1,-1,-1,-1,-1,-1,-1,-1,-1,-1],"loss_changes":[2.0688086E1,2.8536863E1,1.2589304E1,2.5695549E1,1.3359195E1,2.7640114E0,1.5816483E1,1.9240536E1,2.6298523E-2,1.8450714E2,8.975596E1,5.1977825E-1,1.9174767E0,1.4259518E1,1.0982725E1,0E0,0E0,0E0,0E0,0E0,0E0,0E0,0E0,0E0,0E0,0E0,0E0,0E0,0E0,0E0,0E0],"parents":[2147483647,0,0,1,1,2,2,3,3,4,4,5,5,6,6,7,7,8,8,9,9,10,10,11,11,12,12,13,13,14,14],"right_children":[2,4,6,8,10,12,14,16,18,20,22,24,26,28,30,-1,-1,-1,-1,-1,-1,-1,-1,-1,-1,-1,-1,-1,-1,-1,-1],"split_conditions":[2.5581396E1,1E0,2.8571428E1,2.4621212E1,-6.8067226E0,2.631579E1,3.230327E1,-7.201365E1,2.5E1,-1.1260054E1,-5.882353E0,1E0,1E0,1E0,5.4166668E1,-5.85214E-3,1.9348318E-3,2.3147603E-2,2.583321E-2,-5.4786325E-4,-3.2118984E-2,3.0458821E-2,-6.153776E-4,-7.2137923E-3,-4.3227928E-4,-1.6634291E-2,-9.107056E-3,-2.0824692E-3,1.3134931E-2,-5.1354943E-3,-6.4009504E-4],"split_indices":[0,2,0,0,0,0,0,0,0,0,0,2,2,2,0,0,0,0,0,0,0,0,0,0,0,0,0,0,0,0,0],"split_type":[0,0,0,0,0,0,0,0,0,0,0,0,0,0,0,0,0,0,0,0,0,0,0,0,0,0,0,0,0,0,0],"sum_hessian":[1.693928E5,1.4337708E5,2.6015717E4,7.7729445E4,6.564763E4,1.814828E3,2.4200889E4,7.7244484E4,4.8496216E2,2.9708014E4,3.593962E4,4.5139914E2,1.3634288E3,2.4617668E3,2.1739121E4,3.3144114E3,7.393007E4,2.1952098E2,2.654412E2,2.7725463E4,1.9825508E3,9.539E2,3.4985723E4,2.2720767E2,2.2419147E2,6.839118E2,6.79517E2,1.2223302E3,1.2394368E3,1.0804196E4,1.0934926E4],"tree_param":{"num_deleted":"0","num_feature":"3","num_nodes":"31","size_leaf_vector":"1"}},{"base_weights":[-2.086269E-4,6.3410704E-3,-1.6800385E-2,-1.4471859E-2,1.6819892E-2,-6.296377E-2,-1.3225064E-2,1.8856351E-3,-3.0954983E-2,4.6695274E-1,8.55251E-3,-4.8148252E-2,-9.306567E-2,8.7571405E-2,-1.6227044E-2,-1.112364E-3,4.646318E-3,-1.9150047E-3,-9.593973E-3,1.780191E-2,8.098714E-2,-7.369164E-3,1.695302E-3,-9.0334695E-3,-5.658783E-4,-1.0060232E-2,-8.436559E-3,1.5433708E-3,1.5607379E-2,-9.886751E-3,-1.1636384E-3],"categories":[],"categories_nodes":[],"categories_segments":[],"categories_sizes":[],"default_left":[0,0,0,0,0,0,0,0,0,0,0,0,0,0,0,0,0,0,0,0,0,0,0,0,0,0,0,0,0,0,0],"id":37,"left_children":[1,3,5,7,9,11,13,15,17,19,21,23,25,27,29,-1,-1,-1,-1,-1,-1,-1,-1,-1,-1,-1,-1,-1,-1,-1,-1],"loss_changes":[1.8403019E1,2.6480545E1,7.909934E0,1.096287E1,3.0052878E2,1.5319166E0,1.3462341E1,1.183592E1,1.5534454E1,1.4416367E2,5.4790474E1,4.141544E0,6.594944E-2,6.356159E0,1.6387844E1,0E0,0E0,0E0,0E0,0E0,0E0,0E0,0E0,0E0,0E0,0E0,0E0,0E0,0E0,0E0,0E0],"parents":[2147483647,0,0,1,1,2,2,3,3,4,4,5,5,6,6,7,7,8,8,9,9,10,10,11,11,12,12,13,13,14,14],"right_children":[2,4,6,8,10,12,14,16,18,20,22,24,26,28,30,-1,-1,-1,-1,-1,-1,-1,-1,-1,-1,-1,-1,-1,-1,-1,-1],"split_conditions":[1.2772833E0,-2.509091E1,6.007067E0,1E0,-2.4242424E1,4.612029E0,6.428951E0,-3.2941402E1,-3.2183907E1,1E0,-1.8088737E1,2.9529295E0,1E0,6.1688313E0,9.454545E0,-1.112364E-3,4.646318E-3,-1.9150047E-3,-9.593973E-3,1.780191E-2,8.098714E-2,-7.369164E-3,1.695302E-3,-9.0334695E-3,-5.658783E-4,-1.0060232E-2,-8.436559E-3,1.5433708E-3,1.5607379E-2,-9.886751E-3,-1.1636384E-3],"split_indices":[0,0,0,2,0,0,0,0,0,2,0,0,2,0,0,0,0,0,0,0,0,0,0,0,0,0,0,0,0,0,0],"split_type":[0,0,0,0,0,0,0,0,0,0,0,0,0,0,0,0,0,0,0,0,0,0,0,0,0,0,0,0,0,0,0],"sum_hessian":[1.693442E5,1.2141537E5,4.792884E4,4.0658832E4,8.075653E4,3.44403E3,4.448481E4,2.0407629E4,2.0251201E4,1.4554672E3,7.930107E4,2.3097969E3,1.1342333E3,1.2857416E3,4.3199066E4,1.5797981E4,4.6096484E3,1.7139064E4,3.1121375E3,7.9073505E2,6.647321E2,7.3485205E3,7.195255E4,1.1584664E3,1.1513304E3,6.02093E2,5.321402E2,6.2685046E2,6.588911E2,2.2723306E3,4.092674E4],"tree_param":{"num_deleted":"0","num_feature":"3","num_nodes":"31","size_leaf_vector":"1"}},{"base_weights":[-1.9646896E-4,1.2832282E-2,-7.2213304E-3,-4.8062317E-3,2.564728E-1,-4.680317E-1,-1.5476365E-3,7.58707E-3,-7.025295E-2,4.904359E-1,7.934886E-2,-6.0659107E-2,-8.6782247E-1,-5.509232E-2,3.7839632E-3,-1.3038768E-3,1.5017554E-2,-3.0827168E-2,9.2068623E-4,2.3136513E-2,7.517975E-2,2.0439563E-2,3.288062E-4,2.8810475E-3,-2.0094816E-2,-9.066316E-2,-7.961603E-2,6.872836E-3,-1.896066E-2,2.1863997E-3,-1.4997366E-3],"categories":[],"categories_nodes":[],"categories_segments":[],"categories_sizes":[],"default_left":[0,0,0,0,0,0,0,0,0,0,0,0,0,0,0,0,0,0,0,0,0,0,0,0,0,0,0,0,0,0,0],"id":38,"left_children":[1,3,5,7,9,11,13,15,17,19,21,23,25,27,29,-1,-1,-1,-1,-1,-1,-1,-1,-1,-1,-1,-1,-1,-1,-1,-1],"loss_changes":[1.5495477E1,2.5487262E2,2.8758194E2,4.4858257E1,1.6587915E2,2.1783224E2,3.1019928E1,1.3675963E2,1.665395E2,1.16621E2,2.1683525E1,8.336407E0,1.1558533E0,1.6390042E2,3.3556282E1,0E0,0E0,0E0,0E0,0E0,0E0,0E0,0E0,0E0,0E0,0E0,0E0,0E0,0E0,0E0,0E0],"parents":[2147483647,0,0,1,1,2,2,3,3,4,4,5,5,6,6,7,7,8,8,9,9,10,10,11,11,12,12,13,13,14,14],"right_children":[2,4,6,8,10,12,14,16,18,20,22,24,26,28,30,-1,-1,-1,-1,-1,-1,-1,-1,-1,-1,-1,-1,-1,-1,-1,-1],"split_conditions":[-1.056533E1,-1.2666667E1,-9.689922E0,-2.014652E1,-1.2260536E1,-9.960159E0,0E0,-2.509091E1,-1.8613138E1,-1.2416107E1,-1.1934156E1,1E0,1E0,-5.882353E0,4.1841003E-1,-1.3038768E-3,1.5017554E-2,-3.0827168E-2,9.2068623E-4,2.3136513E-2,7.517975E-2,2.0439563E-2,3.288062E-4,2.8810475E-3,-2.0094816E-2,-9.066316E-2,-7.961603E-2,6.872836E-3,-1.896066E-2,2.1863997E-3,-1.4997366E-3],"split_indices":[0,0,0,0,0,0,0,0,0,0,0,2,2,0,0,0,0,0,0,0,0,0,0,0,0,0,0,0,0,0,0],"split_type":[0,0,0,0,0,0,0,0,0,0,0,0,0,0,0,0,0,0,0,0,0,0,0,0,0,0,0,0,0,0,0],"sum_hessian":[1.693009E5,5.9306504E4,1.0999441E5,5.5303734E4,4.0027695E3,1.336835E3,1.0865757E5,4.649929E4,8.804443E3,1.7239001E3,2.2788694E3,6.627094E2,6.741256E2,9.838748E3,9.881882E4,4.0623844E4,5.875448E3,2.2028909E3,6.6015522E3,8.666908E2,8.572093E2,8.61252E2,1.4176174E3,4.05131E2,2.575784E2,4.297438E2,2.4438179E2,5.1232627E3,4.715485E3,5.034935E4,4.8469473E4],"tree_param":{"num_deleted":"0","num_feature":"3","num_nodes":"31","size_leaf_vector":"1"}},{"base_weights":[-1.9169415E-4,8.62175E-3,-1.0090884E-2,1.5848061E-2,-3.0847032E-2,-2.3896668E-2,-1.7852738E-3,1.3818547E-2,1.5203421E-1,-5.2988354E-2,3.246081E-2,-5.4284134E-3,-2.5300753E-1,3.792655E-1,-7.0481235E-3,-5.048234E-3,1.679792E-3,2.1495959E-2,2.9587685E-4,-1.0742638E-3,-6.356388E-3,7.195393E-4,6.9544427E-3,-2.4499032E-3,3.2455813E-2,-2.8929511E-2,-1.29518E-3,4.685725E-2,2.896745E-2,-1.4894197E-2,-1.5218041E-4],"categories":[],"categories_nodes":[],"categories_segments":[],"categories_sizes":[],"default_left":[0,0,0,0,0,0,0,0,0,0,0,0,0,0,0,0,0,0,0,0,0,0,0,0,0,0,0,0,0,0,0],"id":39,"left_children":[1,3,5,7,9,11,13,15,17,19,21,23,25,27,29,-1,-1,-1,-1,-1,-1,-1,-1,-1,-1,-1,-1,-1,-1,-1,-1],"loss_changes":[1.4762934E1,2.553117E1,9.138367E0,2.0910265E1,1.9419926E1,1.266657E2,9.9794785E1,1.4283276E1,1.0420277E1,4.584942E0,3.363278E0,1.743495E2,1.9448502E1,5.28846E0,3.8489376E1,0E0,0E0,0E0,0E0,0E0,0E0,0E0,0E0,0E0,0E0,0E0,0E0,0E0,0E0,0E0,0E0],"parents":[2147483647,0,0,1,1,2,2,3,3,4,4,5,5,6,6,7,7,8,8,9,9,10,10,11,11,12,12,13,13,14,14],"right_children":[2,4,6,8,10,12,14,16,18,20,22,24,26,28,30,-1,-1,-1,-1,-1,-1,-1,-1,-1,-1,-1,-1,-1,-1,-1,-1],"split_conditions":[1E0,2.0422535E1,-6.25E0,1.8681318E1,6.0771706E1,-1.1260054E1,-5.882353E0,-7.201365E1,1.9767443E1,2.5581396E1,7.867647E1,-1.2666667E1,-6.8067226E0,-6.097561E0,-3.3333334E-1,-5.048234E-3,1.679792E-3,2.1495959E-2,2.9587685E-4,-1.0742638E-3,-6.356388E-3,7.195393E-4,6.9544427E-3,-2.4499032E-3,3.2455813E-2,-2.8929511E-2,-1.29518E-3,4.685725E-2,2.896745E-2,-1.4894197E-2,-1.5218041E-4],"split_indices":[2,0,0,0,0,0,0,0,0,0,0,0,0,0,0,0,0,0,0,0,0,0,0,0,0,0,0,0,0,0,0],"split_type":[0,0,0,0,0,0,0,0,0,0,0,0,0,0,0,0,0,0,0,0,0,0,0,0,0,0,0,0,0,0,0],"sum_hessian":[1.692085E5,8.9513234E4,7.9695266E4,7.566109E4,1.3852136E4,2.9934895E4,4.9760375E4,7.4551195E4,1.1098972E3,1.0262934E4,3.5892017E3,2.7702838E4,2.2320571E3,6.7693024E2,4.9083445E4,3.300644E3,7.1250555E4,7.801505E2,3.297467E2,2.0551804E3,8.207753E3,2.1354758E3,1.4537258E3,2.6190178E4,1.5126599E3,1.9387799E3,2.932773E2,3.36884E2,3.4004626E2,1.8390116E3,4.7244434E4],"tree_param":{"num_deleted":"0","num_feature":"3","num_nodes":"31","size_leaf_vector":"1"}},{"base_weights":[-1.7960567E-4,1.1682057E-2,-6.3462155E-3,-3.6634172E-3,3.3834082E-1,-2.0252839E-1,-1.4310642E-3,7.6382263E-3,-6.34861E-2,4.2328534E-1,1.6777918E-1,-1.3630342E-2,-8.0982786E-1,-4.7314733E-2,3.1144596E-3,-1.0827994E-3,1.3451372E-2,-2.8086621E-2,8.2713895E-4,1.9175956E-2,6.567106E-2,1.7778099E-2,1.5543153E-2,8.860893E-3,-1.6058018E-2,-8.4726505E-2,-7.384422E-2,6.2300693E-3,-1.6801335E-2,1.880133E-3,-1.3210268E-3],"categories":[],"categories_nodes":[],"categories_segments":[],"categories_sizes":[],"default_left":[0,0,0,0,0,0,0,0,0,0,0,0,0,0,0,0,0,0,0,0,0,0,0,0,0,0,0,0,0,0,0],"id":40,"left_children":[1,3,5,7,9,11,13,15,17,19,21,23,25,27,29,-1,-1,-1,-1,-1,-1,-1,-1,-1,-1,-1,-1,-1,-1,-1,-1],"loss_changes":[1.2372262E1,2.9001862E2,1.07310875E2,3.7362263E1,3.754019E1,3.1202753E2,2.2643866E1,1.0890245E2,1.3697559E2,9.349274E1,7.9156876E-2,3.1200226E1,1.0989685E0,1.2948499E2,2.52972E1,0E0,0E0,0E0,0E0,0E0,0E0,0E0,0E0,0E0,0E0,0E0,0E0,0E0,0E0,0E0,0E0],"parents":[2147483647,0,0,1,1,2,2,3,3,4,4,5,5,6,6,7,7,8,8,9,9,10,10,11,11,12,12,13,13,14,14],"right_children":[2,4,6,8,10,12,14,16,18,20,22,24,26,28,30,-1,-1,-1,-1,-1,-1,-1,-1,-1,-1,-1,-1,-1,-1,-1,-1],"split_conditions":[-1.1934156E1,-1.2666667E1,-9.689922E0,-2.014652E1,-1.2260536E1,-9.960159E0,0E0,-2.509091E1,-1.8613138E1,-1.2416107E1,1E0,1E0,1E0,-5.882353E0,4.1841003E-1,-1.0827994E-3,1.3451372E-2,-2.8086621E-2,8.2713895E-4,1.9175956E-2,6.567106E-2,1.7778099E-2,1.5543153E-2,8.860893E-3,-1.6058018E-2,-8.4726505E-2,-7.384422E-2,6.2300693E-3,-1.6801335E-2,1.880133E-3,-1.3210268E-3],"split_indices":[0,0,0,0,0,0,0,0,0,0,2,2,2,0,0,0,0,0,0,0,0,0,0,0,0,0,0,0,0,0,0],"split_type":[0,0,0,0,0,0,0,0,0,0,0,0,0,0,0,0,0,0,0,0,0,0,0,0,0,0,0,0,0,0,0],"sum_hessian":[1.6914216E5,5.7855137E4,1.1128702E5,5.5260164E4,2.5949724E3,2.7190562E3,1.0856796E5,4.6480066E4,8.780098E3,1.7312694E3,8.6370306E2,2.0747395E3,6.4431683E2,9.785116E3,9.878284E4,4.0575395E4,5.904672E3,2.1783008E3,6.601797E3,8.700855E2,8.611839E2,4.6977774E2,3.9392532E2,1.2237332E3,8.510063E2,4.1552985E2,2.28787E2,5.1282515E3,4.6568643E3,5.037551E4,4.8407336E4],"tree_param":{"num_deleted":"0","num_feature":"3","num_nodes":"31","size_leaf_vector":"1"}},{"base_weights":[-1.7400226E-4,7.690487E-3,-9.014877E-3,1.39381895E-2,-2.6534831E-2,-2.1957217E-2,-1.2413305E-3,1.17903175E-2,1.2245826E-1,-4.6595518E-2,3.0496802E-2,-4.4811894E-3,-2.1350405E-1,3.291865E-1,-5.888001E-3,1.4402148E-3,-9.090949E-3,1.567453E-2,3.9826432E-4,-1.6835785E-2,-4.3427874E-3,7.7995256E-4,6.3679772E-3,-2.1734328E-3,3.658606E-2,-2.396099E-2,-1.7832337E-3,4.0672734E-2,2.5089402E-2,-1.19954115E-2,-1.5322755E-4],"categories":[],"categories_nodes":[],"categories_segments":[],"categories_sizes":[],"default_left":[0,0,0,0,0,0,0,0,0,0,0,0,0,0,0,0,0,0,0,0,0,0,0,0,0,0,0,0,0,0,0],"id":41,"left_children":[1,3,5,7,9,11,13,15,17,19,21,23,25,27,29,-1,-1,-1,-1,-1,-1,-1,-1,-1,-1,-1,-1,-1,-1,-1,-1],"loss_changes":[1.1754218E1,1.913126E1,8.007059E0,1.7633398E1,1.5802779E1,9.997027E1,7.634676E1,1.9901731E1,5.9637814E0,3.9336662E0,2.7067614E0,1.7488206E2,1.2750374E1,4.0841904E0,2.4362337E1,0E0,0E0,0E0,0E0,0E0,0E0,0E0,0E0,0E0,0E0,0E0,0E0,0E0,0E0,0E0,0E0],"parents":[2147483647,0,0,1,1,2,2,3,3,4,4,5,5,6,6,7,7,8,8,9,9,10,10,11,11,12,12,13,13,14,14],"right_children":[2,4,6,8,10,12,14,16,18,20,22,24,26,28,30,-1,-1,-1,-1,-1,-1,-1,-1,-1,-1,-1,-1,-1,-1,-1,-1],"split_conditions":[1E0,2.0422535E1,-6.25E0,1.825095E1,6.0771706E1,-1.1934156E1,-5.882353E0,1.3300492E1,1.9767443E1,2.1153847E1,7.867647E1,-1.2666667E1,-6.8067226E0,-6.097561E0,-3.3333334E-1,1.4402148E-3,-9.090949E-3,1.567453E-2,3.9826432E-4,-1.6835785E-2,-4.3427874E-3,7.7995256E-4,6.3679772E-3,-2.1734328E-3,3.658606E-2,-2.396099E-2,-1.7832337E-3,4.0672734E-2,2.5089402E-2,-1.19954115E-2,-1.5322755E-4],"split_indices":[2,0,0,0,0,0,0,0,0,0,0,0,0,0,0,0,0,0,0,0,0,0,0,0,0,0,0,0,0,0,0],"split_type":[0,0,0,0,0,0,0,0,0,0,0,0,0,0,0,0,0,0,0,0,0,0,0,0,0,0,0,0,0,0,0],"sum_hessian":[1.6905298E5,8.9466914E4,7.958608E4,7.565667E4,1.3810247E4,2.9863643E4,4.9722434E4,7.418939E4,1.4672773E3,1.02167295E4,3.5935176E3,2.7367734E4,2.4959077E3,6.88561E2,4.903387E4,7.235026E4,1.8391302E3,1.1377015E3,3.2957578E2,2.577266E2,9.959003E3,2.1346462E3,1.4588712E3,2.6150406E4,1.2173292E3,2.2019116E3,2.939962E2,3.4383356E2,3.447274E2,1.8025602E3,4.7231312E4],"tree_param":{"num_deleted":"0","num_feature":"3","num_nodes":"31","size_leaf_vector":"1"}},{"base_weights":[-1.6185746E-4,2.734113E-3,-1.9914713E-2,-1.5985832E-2,6.650773E-3,-1.0843885E-1,-1.5931912E-2,3.7189677E-2,-2.3826305E-2,3.042727E-2,-1.9340809E-3,-1.4208606E-1,-7.423008E-2,-3.0730791E-2,-2.6742695E-3,6.1725313E-3,2.0407042E-3,-4.4356887E-3,-1.6759156E-3,1.22488E-3,3.5231207E-2,-1.2537851E-2,6.0264027E-4,-1.2281014E-2,-1.5972639E-2,-6.0710576E-3,-8.762465E-3,-1.8400075E-3,-1.0519434E-2,1.02992505E-2,-7.3535985E-4],"categories":[],"categories_nodes":[],"categories_segments":[],"categories_sizes":[],"default_left":[0,0,0,0,0,0,0,0,0,0,0,0,0,0,0,0,0,0,0,0,0,0,0,0,0,0,0,0,0,0,0],"id":42,"left_children":[1,3,5,7,9,11,13,15,17,19,21,23,25,27,29,-1,-1,-1,-1,-1,-1,-1,-1,-1,-1,-1,-1,-1,-1,-1,-1],"loss_changes":[9.666737E0,1.0806E1,7.6165123E0,1.0632612E1,2.4878138E1,1.0600471E0,4.056978E0,1.3481936E0,3.223853E0,1.8918686E2,8.799873E1,1.394558E-1,7.857919E-2,8.969803E0,5.3943357E0,0E0,0E0,0E0,0E0,0E0,0E0,0E0,0E0,0E0,0E0,0E0,0E0,0E0,0E0,0E0,0E0],"parents":[2147483647,0,0,1,1,2,2,3,3,4,4,5,5,6,6,7,7,8,8,9,9,10,10,11,11,12,12,13,13,14,14],"right_children":[2,4,6,8,10,12,14,16,18,20,22,24,26,28,30,-1,-1,-1,-1,-1,-1,-1,-1,-1,-1,-1,-1,-1,-1,-1,-1],"split_conditions":[3.230327E1,-4.0851063E1,3.3935017E1,-8.571429E1,-1.1934156E1,1E0,5.4166668E1,-9.3333336E1,-6.875E1,-1.2416107E1,-6.8067226E0,3.3090908E1,3.3090908E1,5.0545456E1,5.5416668E1,6.1725313E-3,2.0407042E-3,-4.4356887E-3,-1.6759156E-3,1.22488E-3,3.5231207E-2,-1.2537851E-2,6.0264027E-4,-1.2281014E-2,-1.5972639E-2,-6.0710576E-3,-8.762465E-3,-1.8400075E-3,-1.0519434E-2,1.02992505E-2,-7.3535985E-4],"split_indices":[0,0,0,0,0,2,0,0,0,0,0,0,0,0,0,0,0,0,0,0,0,0,0,0,0,0,0,0,0,0,0],"split_type":[0,0,0,0,0,0,0,0,0,0,0,0,0,0,0,0,0,0,0,0,0,0,0,0,0,0,0,0,0,0,0],"sum_hessian":[1.6898606E5,1.4737958E5,2.160649E4,2.5499566E4,1.2188001E5,9.291182E2,2.0677373E4,3.2761804E3,2.2223387E4,3.2331783E4,8.954823E4,4.668139E2,4.6230432E2,9.770125E3,1.0907247E4,1.3296296E3,1.9465507E3,5.6895513E3,1.6533836E4,3.0604434E4,1.72735E3,5.4239204E3,8.4124305E4,2.2687024E2,2.3994366E2,2.3283253E2,2.2947179E2,8.38317E3,1.3869556E3,4.6164096E2,1.0445605E4],"tree_param":{"num_deleted":"0","num_feature":"3","num_nodes":"31","size_leaf_vector":"1"}},{"base_weights":[-1.4802425E-4,6.9267806E-3,-8.107496E-3,1.189272E-2,-2.5978941E-2,3.869921E-2,-9.946216E-3,1.0515718E-2,2.284111E-1,-5.5368036E-2,1.9089434E-2,6.636029E-2,2.0452889E-2,-2.6273234E-2,-1.1481711E-3,1.178387E-3,-1.1773208E-2,2.150832E-2,2.3857478E-2,-1.536344E-2,-4.8724613E-3,1.1530449E-4,5.7837227E-3,-4.156509E-4,1.0179228E-2,-1.0409498E-3,4.1066315E-3,-1.1356784E-3,-1.9722706E-2,2.9192204E-2,-5.3225167E-4],"categories":[],"categories_nodes":[],"categories_segments":[],"categories_sizes":[],"default_left":[0,0,0,0,0,0,0,0,0,0,0,0,0,0,0,0,0,0,0,0,0,0,0,0,0,0,0,0,0,0,0],"id":43,"left_children":[1,3,5,7,9,11,13,15,17,19,21,23,25,27,29,-1,-1,-1,-1,-1,-1,-1,-1,-1,-1,-1,-1,-1,-1,-1,-1],"loss_changes":[9.513211E0,1.4615447E1,6.8423953E0,2.3167297E1,1.5535187E1,1.5153708E0,1.0988102E1,1.25606575E1,1.5205383E-2,4.627035E0,3.2177289E0,2.9836192E0,1.1532859E0,6.83029E1,6.0815006E1,0E0,0E0,0E0,0E0,0E0,0E0,0E0,0E0,0E0,0E0,0E0,0E0,0E0,0E0,0E0,0E0],"parents":[2147483647,0,0,1,1,2,2,3,3,4,4,5,5,6,6,7,7,8,8,9,9,10,10,11,11,12,12,13,13,14,14],"right_children":[2,4,6,8,10,12,14,16,18,20,22,24,26,28,30,-1,-1,-1,-1,-1,-1,-1,-1,-1,-1,-1,-1,-1,-1,-1,-1],"split_conditions":[1E0,2.5581396E1,-7.922078E1,2.4621212E1,5.4166668E1,-9.0661476E1,-6.25E0,2.2524326E1,2.5E1,2.7083334E1,7.867647E1,-9.657795E1,-8.571429E1,-1.1260054E1,-5.882353E0,1.178387E-3,-1.1773208E-2,2.150832E-2,2.3857478E-2,-1.536344E-2,-4.8724613E-3,1.1530449E-4,5.7837227E-3,-4.156509E-4,1.0179228E-2,-1.0409498E-3,4.1066315E-3,-1.1356784E-3,-1.9722706E-2,2.9192204E-2,-5.3225167E-4],"split_indices":[2,0,0,0,0,0,0,0,0,0,0,0,0,0,0,0,0,0,0,0,0,0,0,0,0,0,0,0,0,0,0],"split_type":[0,0,0,0,0,0,0,0,0,0,0,0,0,0,0,0,0,0,0,0,0,0,0,0,0,0,0,0,0,0,0],"sum_hessian":[1.6893639E5,8.943866E4,7.9497734E4,7.771152E4,1.1727131E4,3.0041296E3,7.64936E4,7.722146E4,4.900604E2,7.0981787E3,4.6289517E3,1.1929711E3,1.8111586E3,2.6785074E4,4.9708527E4,7.646625E4,7.552119E2,2.2161388E2,2.684465E2,4.4809183E2,6.650087E3,3.1649316E3,1.4640201E3,3.992553E2,7.937158E2,7.254745E2,1.0856841E3,2.4636502E4,2.1485732E3,6.9711224E2,4.9011414E4],"tree_param":{"num_deleted":"0","num_feature":"3","num_nodes":"31","size_leaf_vector":"1"}},{"base_weights":[-1.3669525E-4,9.081149E-3,-5.11419E-3,-3.3182108E-3,1.803586E-1,-3.71904E-1,-8.661186E-4,7.1420823E-3,-5.879434E-2,3.4419277E-1,5.4802205E-2,-1.7883142E-2,-7.455918E-1,6.350873E-2,-4.051687E-3,-9.250021E-4,1.1912732E-2,-2.5711248E-2,5.986388E-4,1.532404E-2,5.374329E-2,1.2206347E-2,-3.374982E-3,2.528289E-3,-9.0878615E-3,-7.8493156E-2,-6.675464E-2,-3.470553E-3,2.6456965E-2,-1.501299E-2,2.769762E-4],"categories":[],"categories_nodes":[],"categories_segments":[],"categories_sizes":[],"default_left":[0,0,0,0,0,0,0,0,0,0,0,0,0,0,0,0,0,0,0,0,0,0,0,0,0,0,0,0,0,0,0],"id":44,"left_children":[1,3,5,7,9,11,13,15,17,19,21,23,25,27,29,-1,-1,-1,-1,-1,-1,-1,-1,-1,-1,-1,-1,-1,-1,-1,-1],"loss_changes":[7.749656E0,1.2577923E2,1.7089684E2,3.2049156E1,8.222388E1,1.6611218E2,2.2234997E1,8.530041E1,1.1256386E2,6.3918182E1,1.3492693E1,2.0373592E0,1.351593E0,1.0096485E2,1.0294863E2,0E0,0E0,0E0,0E0,0E0,0E0,0E0,0E0,0E0,0E0,0E0,0E0,0E0,0E0,0E0,0E0],"parents":[2147483647,0,0,1,1,2,2,3,3,4,4,5,5,6,6,7,7,8,8,9,9,10,10,11,11,12,12,13,13,14,14],"right_children":[2,4,6,8,10,12,14,16,18,20,22,24,26,28,30,-1,-1,-1,-1,-1,-1,-1,-1,-1,-1,-1,-1,-1,-1,-1,-1],"split_conditions":[-1.056533E1,-1.2666667E1,-9.689922E0,-2.014652E1,-1.2260536E1,-9.960159E0,-5.882353E0,-2.509091E1,-1.8613138E1,-1.2416107E1,1E0,1E0,1E0,-6.25E0,0E0,-9.250021E-4,1.1912732E-2,-2.5711248E-2,5.986388E-4,1.532404E-2,5.374329E-2,1.2206347E-2,-3.374982E-3,2.528289E-3,-9.0878615E-3,-7.8493156E-2,-6.675464E-2,-3.470553E-3,2.6456965E-2,-1.501299E-2,2.769762E-4],"split_indices":[0,0,0,0,0,0,0,0,0,0,2,2,2,0,0,0,0,0,0,0,0,0,0,0,0,0,0,0,0,0,0],"split_type":[0,0,0,0,0,0,0,0,0,0,0,0,0,0,0,0,0,0,0,0,0,0,0,0,0,0,0,0,0,0,0],"sum_hessian":[1.689029E5,5.9224312E4,1.0967859E5,5.5227207E4,3.9971052E3,1.2547366E3,1.0842385E5,4.646658E4,8.760628E3,1.7334481E3,2.2636572E3,6.448616E2,6.09875E2,5.1114443E3,1.03312414E5,4.0534207E4,5.932373E3,2.1563281E3,6.6043E3,8.7278705E2,8.6066113E2,1.2862697E3,9.7738745E2,4.0563943E2,2.3922214E2,3.9946353E2,2.1041147E2,3.434558E3,1.6768862E3,4.6082314E3,9.870418E4],"tree_param":{"num_deleted":"0","num_feature":"3","num_nodes":"31","size_leaf_vector":"1"}},{"base_weights":[-1.3321696E-4,6.2464294E-3,-7.3141907E-3,1.075976E-2,-2.3706831E-2,-6.176493E-3,-8.039497E-2,9.523912E-3,2.0213592E-1,-5.030478E-2,1.6878065E-2,-1.7927868E-2,9.187653E-4,-5.2741985E-3,-8.9538686E-2,1.118591E-3,-7.1570724E-3,1.9050922E-2,2.109887E-2,-1.2316692E-2,-4.260938E-3,7.607113E-5,5.1574074E-3,-7.674497E-4,-2.3928298E-2,1.6609896E-2,-2.5468582E-4,-9.469761E-3,-7.895177E-3],"categories":[],"categories_nodes":[],"categories_segments":[],"categories_sizes":[],"default_left":[0,0,0,0,0,0,0,0,0,0,0,0,0,0,0,0,0,0,0,0,0,0,0,0,0,0,0,0,0],"id":45,"left_children":[1,3,5,7,9,11,13,15,17,19,21,23,25,-1,27,-1,-1,-1,-1,-1,-1,-1,-1,-1,-1,-1,-1,-1,-1],"loss_changes":[7.735327E0,1.2087958E1,6.6040916E0,1.8376347E1,1.264022E1,6.5218506E0,3.031459E-1,1.0406832E1,1.11198425E-2,3.960888E0,2.5926232E0,6.683321E1,2.7920433E1,0E0,4.242134E-2,0E0,0E0,0E0,0E0,0E0,0E0,0E0,0E0,0E0,0E0,0E0,0E0,0E0,0E0],"parents":[2147483647,0,0,1,1,2,2,3,3,4,4,5,5,6,6,7,7,8,8,9,9,10,10,11,11,12,12,14,14],"right_children":[2,4,6,8,10,12,14,16,18,20,22,24,26,-1,28,-1,-1,-1,-1,-1,-1,-1,-1,-1,-1,-1,-1,-1,-1],"split_conditions":[1E0,2.5581396E1,8.622449E1,2.4621212E1,5.4166668E1,-6.8067226E0,8.916876E1,2.0422535E1,2.5E1,2.7847347E1,7.867647E1,-9.960159E0,-5.882353E0,-5.2741985E-3,9.595016E1,1.118591E-3,-7.1570724E-3,1.9050922E-2,2.109887E-2,-1.2316692E-2,-4.260938E-3,7.607113E-5,5.1574074E-3,-7.674497E-4,-2.3928298E-2,1.6609896E-2,-2.5468582E-4,-9.469761E-3,-7.895177E-3],"split_indices":[2,0,0,0,0,0,0,0,0,0,0,0,0,0,0,0,0,0,0,0,0,0,0,0,0,0,0,0,0],"split_type":[0,0,0,0,0,0,0,0,0,0,0,0,0,0,0,0,0,0,0,0,0,0,0,0,0,0,0,0,0],"sum_hessian":[1.6884708E5,8.941238E4,7.9434695E4,7.770457E4,1.1707813E4,7.821811E4,1.2165892E3,7.720705E4,4.9752908E2,7.0725E3,4.6353135E3,2.9446473E4,4.8771637E4,3.0399557E2,9.125937E2,7.565734E4,1.549701E3,2.2480466E2,2.7272443E2,6.741797E2,6.3983203E3,3.1657485E3,1.4695648E3,2.8143857E4,1.3026146E3,1.00127893E3,4.777036E4,6.0825256E2,3.0434113E2],"tree_param":{"num_deleted":"0","num_feature":"3","num_nodes":"29","size_leaf_vector":"1"}},{"base_weights":[-1.2295204E-4,5.6197196E-3,-6.5900176E-3,2.0611024E-2,-2.6234603E-3,3.6480237E-2,-8.286049E-3,-1.8141662E-3,1.23631366E-1,-7.342135E-2,2.3138004E-3,6.126403E-2,2.0094952E-2,-2.4823189E-2,-1.1240552E-3,1.5013291E-3,-1.83385E-2,2.5618834E-2,1.0016815E-2,1.0173776E-2,-3.2083798E-4,-2.0569387E-4,9.291489E-3,-7.6927204E-4,3.8603537E-3,-1.01032005E-4,-1.0519954E-2,3.8349453E-2,-7.1892975E-4],"categories":[],"categories_nodes":[],"categories_segments":[],"categories_sizes":[],"default_left":[0,0,0,0,0,0,0,0,0,0,0,0,0,0,0,0,0,0,0,0,0,0,0,0,0,0,0,0,0],"id":46,"left_children":[1,3,5,7,9,11,13,15,17,-1,19,21,23,25,27,-1,-1,-1,-1,-1,-1,-1,-1,-1,-1,-1,-1,-1,-1],"loss_changes":[6.2695265E0,1.104971E1,5.8003635E0,7.328891E1,2.0839388E2,1.2204351E0,9.047846E0,7.960523E1,1.7612366E1,0E0,3.1464457E1,2.3988557E0,9.3249756E-1,4.4186714E1,1.2435884E2,0E0,0E0,0E0,0E0,0E0,0E0,0E0,0E0,0E0,0E0,0E0,0E0,0E0,0E0],"parents":[2147483647,0,0,1,1,2,2,3,3,4,4,5,5,6,6,7,7,8,8,10,10,11,11,12,12,13,13,14,14],"right_children":[2,4,6,8,10,12,14,16,18,-1,20,22,24,26,28,-1,-1,-1,-1,-1,-1,-1,-1,-1,-1,-1,-1,-1,-1],"split_conditions":[1E0,-9.960159E0,-7.922078E1,-1.7427923E1,-9.689922E0,-9.0661476E1,-1.2666667E1,-2.014652E1,-1.6091953E1,-7.342135E-2,-5.882353E0,-9.657795E1,-8.571429E1,-2.4242424E1,-1.2260536E1,1.5013291E-3,-1.83385E-2,2.5618834E-2,1.0016815E-2,1.0173776E-2,-3.2083798E-4,-2.0569387E-4,9.291489E-3,-7.6927204E-4,3.8603537E-3,-1.01032005E-4,-1.0519954E-2,3.8349453E-2,-7.1892975E-4],"split_indices":[2,0,0,0,0,0,0,0,0,0,0,0,0,0,0,0,0,0,0,0,0,0,0,0,0,0,0,0,0],"split_type":[0,0,0,0,0,0,0,0,0,0,0,0,0,0,0,0,0,0,0,0,0,0,0,0,0,0,0,0,0],"sum_hessian":[1.6881398E5,8.941486E4,7.9399125E4,3.1722262E4,5.7692598E4,3.0073665E3,7.639176E4,2.6052258E4,5.6700034E3,3.8574826E2,5.7306848E4,1.1958413E3,1.8115253E3,2.3085217E4,5.330654E4,2.3843436E4,2.2088232E3,8.5119617E2,4.818807E3,3.0145227E3,5.4292324E4,3.988445E2,7.9699677E2,7.244556E2,1.0870697E3,1.7809777E4,5.2754385E3,8.2660095E2,5.2479938E4],"tree_param":{"num_deleted":"0","num_feature":"3","num_nodes":"29","size_leaf_vector":"1"}},{"base_weights":[-1.1631139E-4,-1.5224626E-2,2.5710692E-3,2.8889535E-2,-2.1762446E-2,2.407831E-2,-4.046448E-3,-6.009277E-3,3.771732E-2,-4.798222E-2,-1.6346067E-2,7.2946665E-3,1.4877361E-1,-3.2322642E-1,-4.63382E-4,-1.2228162E-3,-1.851961E-4,1.0421342E-2,1.4745328E-3,-1.0714887E-2,-2.281318E-4,-1.1833793E-3,-5.171209E-3,3.1022094E-3,-4.982258E-3,2.8640037E-2,4.3554297E-3,-2.256872E-3,-6.628275E-2,5.258178E-3,-3.0918623E-4],"categories":[],"categories_nodes":[],"categories_segments":[],"categories_sizes":[],"default_left":[0,0,0,0,0,0,0,0,0,0,0,0,0,0,0,0,0,0,0,0,0,0,0,0,0,0,0,0,0,0,0],"id":47,"left_children":[1,3,5,7,9,11,13,15,17,19,21,23,25,27,29,-1,-1,-1,-1,-1,-1,-1,-1,-1,-1,-1,-1,-1,-1,-1,-1],"loss_changes":[6.8526673E0,7.351512E0,2.0393766E1,1.0138676E0,3.1517448E0,7.055914E1,1.253155E2,1.7172936E-2,4.00994E0,1.0274932E1,2.9355779E0,4.0274662E1,5.790518E1,1.2418651E2,1.5108656E1,0E0,0E0,0E0,0E0,0E0,0E0,0E0,0E0,0E0,0E0,0E0,0E0,0E0,0E0,0E0,0E0],"parents":[2147483647,0,0,1,1,2,2,3,3,4,4,5,5,6,6,7,7,8,8,9,9,10,10,11,11,12,12,13,13,14,14],"right_children":[2,4,6,8,10,